PERSONc1 0.0302548 0.1310955 0.0112999 -0.1014149 -0.1250592 -0.1473160 -0.0951278 -0.1498443 -0.0643639 0.2807063 -0.0328623 -0.0255613 0.0391863 -0.0817448 -0.1153064 -0.0187979 0.0382223 -0.1159806 -0.0943252 0.1694133 0.0684646 -0.1288142 -0.0169521 -0.1574394 0.0240864 0.0485467 0.1012824 0.1002371 -0.0594829 0.0223240 -0.1378124 0.0809489 0.1124193 0.0221184 0.1168635 -0.0479111 0.0707347 -0.0711844 -0.0325939 -0.0375271 0.1704437 -0.2213541 0.0760287 0.1731355 -0.0915163 0.0763827 -0.0163654 0.1106990 -0.0656951 -0.0855283 -0.0024052 -0.1639935 -0.0761581 0.0100601 0.1835861 0.0970833 0.1566188 0.0185538 -0.0078444 0.0046885 -0.1127267 -0.1176744 0.0147781 0.1014461 0.0978525 -0.1417694 0.0732275 -0.1107582 -0.1417840 0.0551879 0.1303329 0.0331161 0.0913511 -0.1118934 -0.0969754 -0.0110767 -0.0841295 -0.0671330 0.0157046 -0.0074821 0.0813768 0.0878254 -0.0595042 -0.0770884 -0.0541824 -0.1454324 0.0323136 0.0820413 -0.0899184 0.1292170 -0.0794324 0.0883460 0.0229600 -0.1852508 0.1721809 0.0745677 -0.1850368 -0.1420954 -0.0800874 -0.0969220 0.0842691 -0.0481192 -0.0189651 0.0079813 0.0863220 -0.0008171 -0.1603215 0.0569426 -0.1625830 0.0641562 0.0016133 0.0172964 0.0258372 0.0016607 -0.0194898 0.0973110 -0.0399818 -0.0414392 -0.0331915 -0.0844097 -0.0747427 -0.1120689 -0.0603910 -0.0585207 -0.0512636 -0.0018068 0.0742756 0.1623526 0.0273824 -0.0876488 -0.1517619 0.0657821 -0.0506991 -0.0353919 0.0516204 0.0984837 0.0780788 -0.0118073 0.1830306 -0.1443379 0.0139781 -0.0181900 -0.1084078 -0.0383196 -0.0829383 -0.0373025 -0.0071140 0.1094209 -0.0428863 0.0631416 -0.0108380 0.0050788 -0.0491107 -0.0003496 -0.0481030 -0.0329947 -0.1797864 0.0490604 -0.0962981 -0.1034047 -0.1104188 -0.1454712 -0.0353303 0.0876775 0.0323088 0.1331950 -0.0383258 -0.0228800 0.1317538 0.1020401 -0.0607586 0.0586823 -0.1077672 -0.0958025 0.1053442 -0.0521988 -0.0128013 -0.0048283 -0.0039416 0.0008859 -0.0224579 0.0568325 0.0294480 0.0778002 -0.1916942 -0.0046375 -0.1470838 -0.0125823 0.2083907 -0.0602132 0.0972506 -0.1113424 -0.0408108 0.0868157 -0.0249119 -0.0065492 -0.0642440 -0.1352908 -0.1342020 0.0171828 0.1745189 -0.0208597 0.0834699 -0.1239889 -0.0275300 -0.1001343 -0.0229763 0.0478813 0.0319375 -0.2166826 0.0582801 0.0317772 0.0404980 -0.0106613 0.0153147 -0.1655932 0.0332666 0.0411717 0.0068755 -0.0398991 0.0159691 0.1296271 -0.1758798 -0.0012141 0.0411895 -0.1729764 0.0098506 -0.0564176 0.0420075 0.1609054 -0.0563178 -0.0814593 -0.0297988 -0.0828141 0.1556534 -0.0652190 -0.0796508 0.0267427 -0.0604832 -0.0010058 -0.0062798 0.1233366 -0.0383485 0.1365863 0.0375457 0.0558977 -0.0906205 -0.0448080 -0.0993949 0.0587900 0.0044876 0.1855767 -0.1035528 0.1549470 -0.1344816 -0.1737747 -0.1439831 0.0553781 0.1135691 0.0180130 0.0569160 -0.0636666 -0.1447344 -0.0348945 0.0789134 -0.0018910 0.0992219 -0.1738486 0.0158886 0.0629006 0.0142155 0.1916675 -0.2127705 -0.0544922 0.0297860 0.0141415 0.0325809 -0.0404497 0.1382973 -0.0190172 0.0484960 0.0234615 -0.0057976 0.0238238 0.0552872 -0.0297220 -0.0096888 -0.0339267 -0.0700157 -0.1592928 -0.2000836 0.1290786 -0.1760191 -0.0530763 -0.0498478 0.1540521 0.0146445 0.0192050 0.0663439 0.3051961
PERSONc2 0.2100296 0.1967808 -0.0905514 0.0642818 -0.1070286 0.0911613 -0.1082910 0.0474361 -0.0570230 0.0551149 -0.0754036 0.0322092 0.0919992 0.0409521 0.0019572 -0.1140789 -0.0703058 0.0496277 0.0272107 0.0773052 0.0629195 -0.0990438 -0.0278434 0.0651406 -0.0233484 0.1126158 0.1433132 0.0150839 0.0824165 0.1176069 -0.0945248 0.2802447 -0.0401901 -0.0195809 -0.0469327 -0.0575300 -0.0692291 0.0103893 -0.1004775 -0.0067818 0.0151068 -0.0229060 0.0029031 -0.0592249 0.0332789 0.0597944 0.0576621 -0.2887156 -0.0084112 -0.0544343 0.1637529 0.1494857 0.0205735 0.0121710 0.1022350 -0.0063661 -0.0163711 -0.0656663 -0.0209260 -0.0343687 -0.0099985 -0.0437013 -0.0036993 0.1114385 -0.1103529 0.1292889 0.1579431 -0.0112691 0.2134362 -0.0410508 -0.0857692 0.1776390 0.0385148 -0.0899419 -0.0687266 0.0349641 0.0699663 -0.0405405 -0.0188493 0.0067122 -0.1561938 0.0888618 -0.0648318 -0.1749576 -0.0474869 0.0312147 -0.0785397 0.2012258 -0.0387652 -0.1573731 -0.0247970 -0.0004704 -0.1808991 0.0300686 -0.0678888 0.0533569 -0.1556107 0.0963071 0.1142956 -0.0062605 0.0573201 -0.1534007 0.0072392 -0.1072474 -0.0348101 0.0914678 -0.0352154 0.0553506 -0.0526390 -0.1284632 0.0426390 -0.0220923 -0.2775147 -0.0050299 0.0361645 0.1190320 0.0052511 0.0483898 -0.0647232 -0.1929094 0.0323319 -0.0318028 0.0042578 0.0762407 -0.0238468 0.1551267 0.0938436 0.0670424 -0.1626402 -0.0315512 0.0070810 0.2058450 0.0305634 0.0928160 0.0995765 0.0841244 0.1528131 -0.0465920 -0.0577549 0.0099156 -0.0563884 0.1369358 0.0967158 -0.1815794 -0.1689640 0.3058275 -0.0755713 0.0555347 0.1175157 0.0405628 -0.0249581 0.2693388 -0.0699874 -0.0406292 -0.0076022 0.1353146 -0.0784105 0.1434327 0.0672409 0.1447492 0.1308852 0.0362861 0.0433773 -0.0320505 0.0633093 -0.1517906 -0.0536583 0.0268306 0.1627271 0.0033014 0.0196007 0.0305968 -0.0071288 0.0903987 -0.0313228 0.1312727 -0.0028678 -0.2185465 0.0402215 -0.0906693 -0.0745157 -0.1023853 -0.0789123 -0.0854748 -0.0014794 0.1064177 -0.0189038 -0.0173891 -0.2858714 -0.0761943 -0.1939487 0.0755243 0.0728001 0.1859120 -0.1049380 0.0964952 0.0687238 -0.1134426 -0.0430071 -0.0365858 -0.0196110 0.0921240 0.0680574 0.0231899 -0.0107693 -0.1070533 0.0115007 -0.1215069 0.1375516 0.0169171 0.1715031 0.1074935 0.0340036 0.0093762 0.0826815 0.0238276 -0.0275600 -0.0593088 0.1483508 -0.1604005 0.1401536 0.1181663 -0.0788843 -0.0242276 0.0168632 -0.0389270 0.0906753 -0.0726958 0.1190625 -0.0020917 0.0454303 -0.1521026 0.1115167 -0.0282432 0.0119049 -0.1762415 0.0470777 0.0137512 0.1507914 0.0958482 -0.0040417 0.1154092 0.0163533 -0.0890814 0.1464994 0.1265260 0.0800053 -0.0574936 -0.0535993 0.1001483 0.0514164 0.0172738 0.0807588 0.1788113 -0.0084330 -0.1069701 0.0211338 -0.0575280 -0.1305610 0.1734027 -0.1391840 0.1226369 -0.0131666 -0.0234295 0.1498712 0.0123817 -0.0561297 0.0732912 0.0818891 0.0933652 0.1177139 0.0369331 -0.1092223 0.0588310 0.1963159 0.0746871 -0.0155037 0.2271215 -0.0725287 -0.0244042 -0.1334778 0.1157305 0.1556635 -0.0075216 0.0576330 -0.0163173 0.0866528 -0.0504224 0.0847108 0.0214405 0.0010221 -0.1160194 0.1201847 -0.1078110 0.0156812 0.2107777 0.0566531 -0.1108243 0.0119135 0.0038170
PERSONc3 0.0042151 0.0602287 -0.0816165 -0.0313223 0.0750946 -0.0171777 -0.0375698 0.0626267 -0.0950156 -0.1293599 -0.2027691 -0.1421193 0.1330855 -0.0770601 -0.0226114 0.0454086 -0.0252304 0.0953994 0.1462516 0.1006725 0.1007026 0.1809335 0.0115256 -0.1872246 0.0325031 0.0332151 -0.0107105 -0.0292791 0.0608206 -0.1529653 0.0826168 -0.1844195 -0.1010345 -0.0702334 0.0002627 -0.1856211 -0.2601052 0.1081089 -0.0089239 0.0685216 0.0500961 0.3512410 -0.0602411 0.1227702 -0.1095112 -0.0142585 0.1498691 -0.0911243 -0.0680117 0.1000954 -0.0535906 -0.0778538 0.0116101 -0.0346045 0.1322391 -0.0576329 0.1260688 0.1367777 0.0633840 -0.0723664 0.0683832 0.0348522 0.0781329 0.1433567 -0.1050311 0.0203173 -0.0319160 0.2257867 -0.0156941 -0.1063732 -0.1069387 -0.0239729 -0.0080315 0.1246177 0.1130458 -0.1347973 -0.0072094 -0.0978997 -0.0378859 0.0606469 0.0836401 -0.0018602 -0.0124719 0.0176038 -0.2787627 -0.0408641 0.0668526 -0.1553420 -0.0828912 0.0101734 -0.1086692 0.0314004 -0.0970887 -0.0804395 -0.2512834 -0.0001756 0.0526717 0.1215655 0.0321149 -0.1724730 -0.1442638 -0.1542477 0.0226173 -0.0383126 0.0866982 -0.0252372 0.1038300 -0.0783127 -0.0326925 -0.1118614 -0.0525632 -0.0839998 -0.1105729 -0.0744103 -0.0145425 0.0092117 -0.1576994 -0.0094399 0.0615459 0.1353587 -0.1474358 -0.0096882 0.0360030 0.0285718 0.1508013 0.1237852 0.0274870 -0.0269606 0.0790318 0.0749871 -0.0612436 -0.0311301 -0.1238645 0.1803935 -0.0514192 0.0179233 0.0773754 -0.1920720 0.0331588 0.1873910 0.1682448 -0.0568529 -0.1060344 -0.0872277 0.1012919 0.0022678 -0.1538089 -0.1244584 0.0209807 -0.0589158 -0.1893249 0.0700997 -0.1154561 0.0527629 -0.1432942 -0.0807380 0.0381786 0.2533558 -0.1053813 0.1787240 -0.1420440 0.1264944 0.1175329 0.1043781 0.0064856 -0.1138445 -0.0811432 0.0311554 0.0329364 0.0047720 -0.0361381 0.0531530 0.1127796 0.0316406 0.2045571 -0.0066777 0.0879384 -0.0286003 -0.1562146 0.0167203 -0.0433266 0.0817367 -0.0399424 0.0717462 0.0630712 -0.0911976 -0.0657867 0.0795497 0.0076533 -0.0485753 0.1017495 -0.2348397 0.0164626 -0.0071522 0.0071167 0.1504103 0.0925656 0.0219119 0.1592738 0.0135943 0.0206260 -0.1092243 0.2564836 -0.0437302 0.0135343 0.0002427 0.1427799 -0.0262012 0.1294584 0.0588911 0.1143806 0.0577658 -0.0657519 0.0767516 -0.1166826 0.1368088 -0.0923386 0.1484894 0.0938551 -0.1571528 -0.0949919 0.0451457 0.1936685 -0.0246972 0.0144295 -0.0312351 0.0578761 -0.0840255 0.0057261 -0.1216259 0.1404975 -0.1200531 -0.0958481 0.1956472 0.0785944 -0.0638938 -0.0438063 0.1072229 0.0226119 -0.0547171 -0.0429368 -0.0870907 -0.0355897 -0.0576327 -0.0069668 0.0803291 0.0250901 0.1312390 0.0689637 0.0421541 0.1155703 -0.1002153 0.0170221 0.0159081 0.0264030 -0.0179414 0.0038598 -0.0854696 -0.0377200 -0.0776600 0.0296527 -0.0262069 -0.1174200 0.0171629 -0.1110336 0.3734666 0.0174971 -0.0608288 -0.1796111 0.0263536 0.0766049 0.0635506 0.0971446 -0.1937127 -0.0157214 -0.0040490 -0.1229002 0.0645585 0.0197733 0.0488944 -0.0904847 -0.1685596 0.1261074 -0.0794388 -0.0487843 0.0245769 0.1720231 0.0076990 0.1574790 -0.1156048 -0.2604129 0.0924247 0.0526619 0.2149677 -0.1373041 -0.1181137 0.1575208 -0.0949165 0.0477263 -0.0962612
PERSONc4 0.0186225 0.0187970 -0.0318903 0.1393446 -0.0294794 -0.0896303 0.1616531 -0.0676913 0.1145485 0.0978654 0.2487676 0.0901454 0.0048810 -0.1225820 0.0537234 0.0168397 -0.0357518 0.0726184 0.2069108 -0.0787952 0.0416350 0.1076046 0.0642889 -0.0257503 -0.0071933 0.1250380 0.0337656 0.0787542 -0.0632357 -0.1181260 -0.0273565 0.2158980 -0.1940370 -0.0992298 -0.0504097 0.0040493 -0.0664330 -0.1403513 -0.0338917 -0.0582883 0.0611207 0.1395604 0.0361490 0.0441735 0.1815124 -0.2837676 0.0700223 -0.0107602 0.0352218 0.0584635 0.0579590 0.0974996 0.1353178 0.0553749 0.0143868 -0.0177846 0.0806158 -0.0400821 -0.0966093 0.1445457 -0.2224970 0.0739537 0.1490350 0.1530608 -0.0461504 -0.0559983 -0.1425288 0.1216999 0.0271564 -0.0021000 0.0325118 -0.1493241 -0.0226813 -0.1697951 0.0442333 -0.0507712 -0.0055256 0.0803698 0.0340170 0.0561472 0.1235341 -0.0846432 0.0588375 -0.0200587 0.0746143 -0.1942003 -0.0954330 0.1513670 -0.1773917 -0.1026435 0.0174109 -0.0120043 0.0803835 -0.0614577 0.0349913 0.1567429 -0.0602685 0.1027761 0.0751934 0.0881175 -0.0877602 0.0272306 0.0634267 0.1317542 -0.0781241 0.0817498 0.0021565 -0.0969083 0.0245666 0.0216228 0.1740730 -0.0245828 0.1949876 -0.2011920 -0.0408965 0.0628087 0.0964395 -0.1425474 -0.0809770 -0.1354784 0.0542407 -0.0495696 -0.0120157 0.1091497 -0.0712090 0.1162742 0.0383588 0.0981601 0.0632251 0.1088233 -0.0947317 -0.0582051 -0.1141059 0.0948805 0.1516134 -0.0201529 0.0747822 -0.0372326 0.0501357 -0.1208305 0.1264648 0.1020428 -0.1654174 0.0513214 -0.0525133 0.0374393 -0.0091540 0.2165560 -0.2061704 0.0236725 0.0433414 0.0478744 -0.0185886 -0.0670166 0.0366039 0.0119648 -0.0355355 0.0567351 0.1086233 0.0391768 -0.0300525 0.1348232 0.0025539 -0.0050890 -0.0518040 -0.0849371 -0.0341482 -0.0698275 -0.0147922 0.0095940 0.0715552 -0.0152236 0.0497254 0.1284110 0.0532802 -0.1303207 0.0328390 0.1481179 -0.0038348 -0.1067347 0.0601923 -0.1212867 0.1063388 0.1052832 0.0369388 -0.0481175 0.0503643 -0.0513154 -0.0830254 -0.0641018 0.0918832 -0.1297821 -0.0776140 -0.1857669 -0.0028012 0.0837840 -0.0029156 -0.0995278 -0.0403701 -0.1386043 0.1040681 0.0113559 -0.0081469 -0.0762213 -0.0500998 -0.1401844 -0.1065865 -0.1676464 -0.0884469 0.0489282 -0.0700422 0.1697383 -0.0300553 0.1835861 0.0741211 0.0434010 0.0089626 0.0168422 -0.0802556 0.1758506 0.0638791 -0.2333481 -0.0462246 -0.0411433 -0.1792912 -0.0387568 0.1353229 -0.1082976 -0.2962889 0.0024013 0.1110389 0.0030472 0.0563641 0.0145580 0.0994628 -0.0679664 0.1075377 -0.0181400 0.0407330 -0.0619437 0.0086905 0.1882021 -0.0897173 -0.0110661 -0.1130629 -0.0671417 0.0103127 0.1733882 0.1169178 0.0348312 0.1017492 0.0251927 0.1136078 0.1254209 0.0605255 -0.1403269 0.0456627 0.0560961 0.1139457 0.1047545 -0.2553815 0.1373740 -0.1698802 0.0753004 0.1645675 0.0909606 -0.0108095 0.1546212 -0.0142265 0.2149199 0.0293747 0.0970938 0.0149373 -0.0361489 -0.1108509 0.1276328 -0.1261953 0.1075631 -0.0520625 -0.0259656 0.0019351 0.0004237 -0.0573240 0.0566324 0.1752219 0.0640591 -0.0673187 -0.0190058 -0.0163471 0.0135208 -0.0438192 0.1116793 -0.0564599 0.0561419 0.0100526 -0.0580104 0.0542329 -0.0076031 0.1023381 -0.1799693
PERSONc5 0.0047782 0.0162974 -0.1080338 -0.1418413 0.0233904 0.0078673 -0.0509935 -0.0989155 -0.1000691 -0.0496074 0.4596539 -0.1060636 0.1086022 -0.0479994 -0.0331771 -0.2395418 0.0109455 0.0287280 -0.0049628 0.0044784 -0.0700940 0.1959947 0.0104581 0.1650215 -0.0897222 -0.0641835 0.1006423 -0.0279509 -0.1287320 0.0621264 -0.0383111 -0.1681628 0.0207505 0.1143556 0.0633031 -0.0434211 -0.1351153 -0.0312320 0.0389066 0.0122116 -0.0273873 0.2628489 -0.0662646 0.1218253 -0.0012611 0.0891415 -0.0547528 0.1562838 0.0584592 0.0267343 0.0138807 0.1416998 -0.1882609 -0.1863969 0.0409628 0.0251135 -0.0090881 -0.0193285 -0.1041554 0.1116686 0.0871629 -0.0906643 0.2165274 -0.0552841 -0.1968227 -0.1189095 0.0168530 -0.0017897 -0.0265284 0.0673557 -0.1015682 0.0327705 -0.2841513 0.0677446 0.0353371 -0.1429854 0.0300318 0.1897696 0.0541189 -0.0858471 -0.1901462 0.0142379 -0.1492343 0.0172801 -0.1300445 -0.0314093 0.1284032 -0.0093856 0.0363285 -0.0190591 0.2285390 0.0287071 0.0848640 -0.0274406 -0.0224077 -0.0884867 -0.1579934 -0.0400387 -0.1768816 0.0963952 -0.0338393 0.0372694 -0.0517842 -0.0118354 0.0268875 0.1395318 -0.0165467 -0.0244623 0.1076894 0.1387799 0.1160066 0.2118433 -0.0297225 -0.1206886 -0.0715555 0.1656086 0.1447023 -0.1007994 0.0760489 -0.1163206 -0.0467517 0.0640120 0.1177058 0.0609097 0.1934758 0.0119305 0.0560203 0.1283377 -0.0101367 -0.0219709 -0.0672324 -0.1492092 -0.0566262 0.1750450 0.0805474 0.0673614 -0.0789550 -0.1045438 0.1284169 -0.0028897 -0.1271605 -0.1407378 0.1395460 0.0685423 -0.0910992 0.0137142 0.0061224 -0.0052114 -0.1123392 0.0266221 0.1474620 -0.0439003 0.1084397 -0.0328283 0.1665865 0.1258659 -0.0832411 -0.0607046 -0.2595189 0.0316982 0.0722589 -0.1143598 -0.2334177 -0.0372787 -0.0025999 -0.0638061 -0.0114913 0.2716890 0.0113102 0.0040678 -0.0554871 -0.0526670 0.0932709 -0.0259099 -0.1056116 0.1331533 0.0501906 -0.1307794 0.0336760 0.1564316 0.1048505 0.0732041 0.2199915 0.0355543 -0.1050253 -0.0710137 -0.0119298 0.1149496 -0.0301437 -0.0267714 0.1296616 -0.0127481 -0.0930182 0.0792789 0.0779212 -0.0198259 -0.0268638 -0.0222132 -0.0948821 -0.1581922 -0.2137186 -0.1729848 0.2297280 0.0478856 0.0562587 -0.2347836 0.1077973 -0.0280574 -0.0824113 0.1988236 -0.0158734 -0.0663255 0.0333772 -0.0162378 0.0552321 0.0659386 0.0747954 0.0877874 0.0070603 0.0407825 -0.2369506 0.1362550 -0.0489738 -0.0025669 -0.0927798 0.1444833 -0.0190171 -0.0690728 -0.0955551 -0.1024222 -0.0301677 -0.0907275 -0.0714726 -0.0133072 0.0608330 0.0805611 0.1705987 0.0020561 -0.1360729 0.0282836 0.0607832 -0.0395596 0.0604773 -0.0413709 0.1273121 0.2268171 -0.0203115 -0.0321776 0.0406202 0.0440253 -0.0799071 -0.0371901 0.2085130 0.0427190 -0.0963487 -0.0454060 -0.1186905 0.0301004 0.0172155 -0.0260489 0.0951105 -0.0488635 0.1554039 0.1706008 0.1546709 -0.0583504 -0.0666215 -0.0460192 0.1078560 -0.0835578 -0.0838028 0.2146306 0.1031746 -0.1765448 -0.0406865 0.2145494 0.1105283 0.0134529 0.1831576 0.0372876 -0.0627338 -0.0001352 0.0984575 -0.0803085 -0.1947347 0.0124067 0.1020918 0.0561068 -0.0085584 -0.0430486 0.0450245 0.1869563 0.0807178 0.1520686 -0.0898152 -0.0025669 0.1969888 0.2022617 0.0306000 0.0959790
PERSONc6 -0.0379237 0.0249007 0.0269732 0.0242766 -0.0996319 0.0028719 0.0571287 -0.1695683 -0.0022001 -0.0834426 0.1645925 0.0432283 -0.0897865 0.0745212 -0.0329529 0.0249408 -0.0354271 0.0430158 -0.0176873 0.0134438 0.0052290 -0.0702961 -0.0397685 -0.0637656 0.0313575 -0.0875224 -0.0284151 0.0633047 -0.0900544 -0.0993397 -0.0503709 0.1221833 0.0044644 0.1594767 -0.0009509 0.0470149 0.0226382 0.0429734 0.0155567 -0.0122115 -0.0398444 -0.0213586 -0.1815583 -0.0699351 0.1513346 -0.0486273 -0.1365770 0.0954498 0.1134972 -0.2683251 -0.1931777 -0.1913751 0.0960543 -0.0941205 0.1691561 0.0612413 -0.0125906 0.1516124 0.0269918 -0.0651682 0.1187325 0.0449119 -0.0475163 0.0010256 0.0529567 -0.0907625 0.0863926 0.0812425 -0.2992529 0.0123411 -0.1101672 -0.0383367 0.0179254 -0.0890524 -0.0956968 0.1173863 0.0751538 -0.0380619 -0.0108368 -0.0431520 0.0303008 0.0787209 -0.2946466 0.0082425 -0.0128037 0.0499611 -0.0590597 -0.0298533 -0.2104525 -0.0434145 -0.1817444 0.0205302 0.1085509 -0.0977343 0.0194216 0.0696107 0.0682044 -0.0415581 -0.0961733 0.0104738 0.0486144 -0.1419091 0.0985454 0.0872794 -0.0261524 0.1780548 -0.0195056 -0.0476126 -0.0272024 0.0434093 -0.0742486 0.1206846 -0.1544901 -0.0581778 -0.0018970 0.2223258 -0.0606671 0.0555522 0.1002716 -0.0487640 0.0746991 -0.0536937 0.1432780 0.0183095 -0.1847984 0.0696422 0.1089436 0.0104075 -0.0791514 0.0013837 0.0621880 0.1057349 0.0198058 -0.0460335 -0.0550215 -0.0142485 -0.0914920 -0.0410785 -0.0800239 -0.0721027 0.1084583 -0.0312644 0.1118128 -0.0701734 0.0465783 -0.0844339 -0.0363736 0.0842750 0.0231613 -0.0054296 0.0468177 0.0388416 -0.2199771 0.0985345 -0.0934577 0.1734115 0.0702257 -0.1634912 0.0672412 0.1099659 -0.0471948 -0.0849864 0.1854934 -0.1360784 -0.0156804 -0.2335553 -0.0543471 -0.0086448 -0.0438433 -0.0256551 -0.1518993 0.2301204 -0.1005166 0.0027862 0.1263053 0.1705641 -0.0834536 0.0418318 0.1734650 0.1148505 0.0006189 -0.0320245 0.0118326 -0.1966571 -0.0835200 0.0113297 -0.0193010 0.0855110 -0.1054254 -0.0295089 0.0844634 0.1754131 -0.0039594 0.2177912 -0.0168359 0.0172248 0.0367248 -0.1484326 -0.1102587 -0.0082705 0.0736777 -0.0188515 0.1343958 0.0315927 -0.0083714 0.1180112 -0.1295082 0.0548399 0.1029800 -0.0214745 -0.1338102 0.0172806 0.0691716 -0.1207881 0.0166688 -0.1140148 -0.2227052 0.0584114 0.0388011 0.2079953 0.0323687 -0.1071326 -0.0966268 -0.1994623 -0.0119849 0.0405790 -0.1553670 0.0689836 -0.2760051 0.0169667 0.0637763 0.0311413 0.0544203 0.0091160 0.0252623 0.1683344 -0.0350146 -0.0539454 -0.0212582 -0.0901467 -0.1855460 -0.0133037 -0.0818946 -0.0129125 -0.1622872 -0.1860825 0.1010348 0.0024806 0.0345222 -0.0947389 0.1112066 0.0200428 -0.1566264 -0.0778103 0.0361996 -0.0333262 0.0619538 -0.1583405 -0.0311704 0.1894701 0.0669960 0.0647336 -0.0086824 0.0072860 -0.1498866 0.0354868 -0.1192600 -0.1195533 -0.1527227 -0.1511978 -0.0763570 -0.1824365 0.0514364 0.1083328 0.1067692 0.1121117 0.0865622 0.0889717 -0.0244630 0.0191475 -0.0941987 -0.1654719 -0.0743442 -0.0913875 -0.1205464 -0.0630875 -0.0535204 0.0348023 -0.0318357 0.1362070 -0.0649621 0.0894540 0.0355609 0.0808601 -0.1391530 0.1039846 0.0642063 -0.0142467 0.2374939 0.0038420
PERSONc7 0.0744840 0.0503332 0.0347400 0.0341023 -0.0735448 -0.1803339 0.1959347 -0.1521160 -0.0316550 0.0116088 -0.0162174 0.1092626 -0.0153144 0.0800810 0.1223880 0.0105924 0.0574329 -0.0376353 -0.0720146 0.1183918 0.0308177 0.1566737 -0.1365336 0.1578441 -0.0610673 -0.0663721 -0.0753773 0.0490385 0.0198010 -0.0224148 0.0279247 -0.1033163 0.0733340 -0.0432365 0.0099892 -0.0814044 -0.0894716 0.1856560 -0.2548915 -0.0923303 0.1300363 0.1749464 0.0290808 -0.0693904 0.0745345 -0.0645214 0.0355647 0.0235486 -0.1039130 0.0369539 -0.0092591 0.0614949 0.1786083 0.0162726 -0.0047456 -0.0611044 0.0953049 0.1077705 0.0145546 -0.0900670 -0.1015675 0.0426730 -0.0179985 -0.1374508 0.2183499 0.0299434 -0.1303669 0.0611296 -0.0034228 -0.0000864 0.1499425 -0.1046847 0.0372044 -0.0244241 -0.0142012 0.0218870 -0.0724668 0.0342903 -0.0758704 -0.0567509 -0.2280359 0.1285175 -0.0674875 0.0193467 -0.0415518 -0.2388681 -0.0538085 -0.0129803 0.0313832 -0.0275123 0.0064392 0.0637117 -0.0707738 -0.1087826 -0.1110562 0.0182840 -0.0980739 0.0290879 -0.0512095 -0.0819852 0.0411622 -0.1677169 -0.0097532 -0.0210765 -0.0953023 0.1447300 -0.0064670 0.0051744 -0.0122117 -0.0227670 0.1177324 0.1451654 0.0819378 -0.1314358 -0.0017283 -0.0418023 0.0596123 -0.0852714 -0.0356633 -0.0741688 -0.0537817 -0.0788987 0.1871546 0.0822635 -0.0710615 -0.0099077 -0.0027455 -0.1132897 -0.1495937 0.1609114 0.0415567 -0.0325777 -0.0420862 0.0071792 -0.0841972 -0.0373586 0.1479012 0.0770703 0.1339446 0.0897618 -0.1399789 -0.0451648 -0.0196176 -0.0167759 -0.1421269 -0.0586848 0.1361678 -0.0108638 -0.0512737 0.1262117 0.1404655 0.0131471 0.0116378 -0.0831373 0.0138790 0.0593851 -0.1950824 0.0011908 -0.1433839 -0.0735080 -0.0143656 0.0474271 -0.0366403 0.0962407 -0.0644683 -0.0190621 -0.0491991 -0.0203860 -0.1856408 -0.1272747 -0.0719180 -0.1888649 0.2433306 -0.2001400 -0.0728028 0.0403643 0.0842505 -0.1189240 -0.0487115 -0.1327055 0.1236224 0.1026992 -0.0540191 -0.0213583 0.0082021 0.0916922 0.1657542 0.1972673 -0.0516077 -0.1563996 -0.0931505 -0.1656496 -0.0447188 0.0138298 -0.0345122 -0.0887699 0.1000442 -0.0594806 -0.0187333 0.0651318 0.0945511 -0.1208975 -0.1310714 -0.0335170 0.2000022 0.0364736 0.0501608 -0.1345933 0.2617003 0.0677135 0.0260645 0.1057404 -0.0135690 -0.1284571 0.0877505 0.1177259 -0.1222189 0.1076826 -0.1641780 -0.0785248 -0.0212804 0.0463337 -0.2383697 -0.0993582 -0.2190386 0.1053240 -0.1222540 0.0541666 0.0218350 -0.0153942 0.1569015 0.0185037 -0.0015523 0.1265312 0.0352520 -0.2085017 -0.1591457 0.0086942 -0.1174834 0.0340946 0.0304118 0.0652002 0.0045162 -0.0410079 -0.1654631 -0.1118617 -0.0977092 0.1306832 0.0120515 -0.0580014 0.1476417 0.1993215 0.0248481 -0.0677887 -0.0648634 -0.0323277 0.1917919 -0.0875336 -0.0669733 0.1091577 0.0165299 -0.0048569 -0.1965149 0.1329480 -0.1161136 0.0375160 -0.0428757 -0.0553220 -0.0975872 0.0184550 -0.1498282 -0.1268759 -0.2024493 0.0545908 -0.0563818 0.0355237 0.0163757 -0.0287013 0.0411645 0.1617270 -0.2121601 0.1159432 -0.0787249 0.0211234 0.2018522 -0.2010916 0.0504436 -0.0095144 -0.3227046 -0.1186515 0.1724215 0.0633945 -0.0839954 -0.0727646 -0.0108308 0.1560333 -0.0849597 -0.0959149 0.0850954 0.1542746
PERSONc8 -0.0646313 -0.0871108 -0.0571878 -0.1430048 0.0251076 0.0896513 -0.0370997 0.0708895 -0.0833464 0.0270250 -0.0357512 -0.0526097 -0.1525542 0.0860323 -0.1051964 -0.0905659 -0.0626105 -0.0187629 -0.1106637 -0.0713030 -0.1238865 0.0053106 -0.1648294 0.1048712 0.1301915 0.0512778 0.0850099 0.1761928 -0.1293609 -0.1548338 -0.0127387 -0.0546677 -0.0222319 0.0246220 0.0570736 -0.1048534 -0.0353182 -0.1738224 0.1205375 0.0851725 0.2351722 -0.0804257 -0.0021611 -0.0555656 -0.1479958 0.0953049 0.1422395 0.0282246 -0.0338176 -0.0898499 0.0315695 -0.1438960 -0.2280837 -0.0249758 0.0478005 0.0227862 -0.1344009 -0.0796177 -0.0623066 0.0753655 -0.1896625 -0.0958201 0.0546399 0.0995325 -0.1553593 -0.0495217 -0.1384918 0.0500171 -0.0515067 0.0620253 0.1072955 0.0228498 0.0015097 0.1065213 0.0070120 -0.0785213 -0.0868399 -0.0266258 -0.0613738 0.1713844 0.1065386 -0.0429201 -0.0753038 -0.1059945 0.2086172 0.1157146 -0.1507746 0.0069914 0.0643547 -0.0555831 -0.1865223 0.0146949 -0.0691937 0.0693546 -0.0281014 0.0390388 -0.0025906 -0.1441690 -0.0090833 -0.0000383 -0.0025932 0.1176061 -0.0701788 -0.1606381 0.0091241 0.0165838 0.1717707 -0.1353230 -0.0012011 -0.0599945 -0.1227130 -0.0075426 0.0252882 -0.1445266 -0.0277639 -0.1210998 -0.1500710 0.0916090 0.1332521 -0.1292264 -0.0919948 0.0275613 0.1176135 -0.0559118 -0.1091244 0.1642338 -0.1781957 0.2338704 -0.0306552 -0.0596352 0.0091646 -0.0281356 -0.2079790 -0.0226335 -0.1013770 -0.0769292 0.1526432 -0.1107523 0.1304846 -0.1503732 -0.0468389 -0.0546494 0.0196274 0.0254601 0.0089671 -0.0759403 -0.0259077 0.0556198 0.1235892 -0.0178086 0.0748412 0.0527061 0.1659460 -0.1234082 0.0046434 0.1127793 0.0337970 0.0160736 -0.1262613 0.0266649 0.0705943 0.0194483 0.0146820 -0.1451387 0.0336403 0.0747096 -0.0769766 0.0958402 0.0752820 0.0075733 -0.0750262 -0.1519227 -0.0308651 -0.1105452 -0.2778679 0.1180790 -0.0341781 0.0161429 -0.0715945 -0.0161974 -0.1316279 -0.0253377 -0.0977124 0.1071270 -0.0414494 -0.1589250 -0.1200082 -0.1653589 0.0875385 0.0218517 0.0369323 -0.0772318 0.0909355 0.0040391 -0.1422781 -0.1075590 0.1492606 0.2153251 0.0463894 -0.2622114 0.0775550 -0.0249662 0.1515734 0.0720453 -0.0073156 0.0802814 -0.0459095 -0.1462496 0.0322454 -0.1005554 0.1393182 -0.0734390 -0.1311355 0.0688754 0.1436047 0.1715397 0.0945173 -0.1572859 0.1260930 0.0258929 0.1829741 0.1490026 0.1157815 0.1432649 0.0563203 -0.0277057 -0.0062379 -0.0498815 -0.0030302 -0.0780763 0.2103237 0.0472930 0.0585345 0.1288194 0.0868329 -0.1656161 0.1501994 0.0267176 0.1043106 -0.0804805 0.0159475 0.0008901 -0.0993971 0.1782646 0.0377704 0.3070887 -0.0547454 -0.1120559 -0.2309925 0.0431022 -0.0759887 0.0326153 -0.1122334 0.0385806 0.0725125 0.1638746 -0.0921936 0.1612513 0.0946829 0.0767381 -0.0602135 -0.1395732 -0.0989064 -0.1309036 -0.0085906 -0.0210258 0.0565005 0.1048167 -0.0288563 -0.0404451 -0.1938072 0.0043977 0.1898150 -0.1312260 -0.0668963 0.1245705 0.0771027 -0.1262091 -0.0226655 0.1628333 -0.0078864 0.0703485 -0.0358207 -0.0041530 -0.0653616 -0.1454709 0.2645231 0.0485256 0.1052165 -0.0616836 0.0577278 -0.0858591 -0.0971730 -0.0576510 -0.0833784 -0.0126037 0.0422293 -0.0720580 0.0100979 -0.0501085
PERSONc9 -0.1165045 0.0816886 -0.0138240 0.1141691 -0.1144682 -0.1379500 -0.1110134 -0.0413813 0.0556070 0.0804641 -0.1443222 -0.0226711 0.0090427 0.0106587 0.0860657 0.0878042 -0.0857740 -0.0849219 -0.0530581 0.1014257 0.0367507 0.1378357 -0.0396284 0.1698188 -0.0004356 0.0400181 -0.0019413 -0.1579581 -0.0077395 0.1419307 0.0434292 -0.0850879 0.0032378 0.0175582 0.0581297 0.1705446 -0.0732240 -0.0007088 0.0028260 -0.0481145 -0.1171017 -0.0139461 -0.0643737 0.0987661 0.0274355 0.0348420 -0.1285672 -0.0851829 0.0789377 -0.1311082 -0.0103389 -0.0101606 0.0434227 -0.0558323 0.0691249 0.0096718 0.1306753 0.0077784 0.0892364 -0.1420848 0.0155491 0.0045857 0.0438066 -0.0632041 0.1572762 -0.2044946 0.1256228 0.0391655 -0.0338787 0.1180369 -0.0282717 0.0150871 -0.0684597 0.0710025 -0.0236380 0.1329581 0.0425691 0.1216380 0.1634844 0.1438895 -0.0182025 -0.0597405 -0.0015267 -0.1708457 0.0462708 -0.0822641 0.1590437 -0.2268571 -0.1161341 0.0499600 -0.0308425 -0.0819271 0.0235861 0.0452656 -0.1241306 -0.1294872 0.0473503 0.0861696 -0.0567986 -0.1438252 -0.0247379 -0.0621790 -0.1612743 -0.0571542 -0.0822057 0.0356854 0.0201721 0.0919639 -0.1509802 0.0602807 -0.0361834 0.0382212 -0.0525359 -0.0243867 0.0806897 0.0438988 -0.0630727 -0.0938950 0.1661568 0.0159480 0.0343785 -0.0299313 0.0446285 0.0529585 0.1907267 0.1112207 -0.0044952 -0.0820048 0.1032646 -0.0475524 -0.1074917 0.1642145 -0.1678762 -0.0514212 -0.0869215 0.1559655 0.1492517 -0.1209645 0.0505868 0.1065183 0.0263493 0.1114469 -0.1162236 -0.2135356 0.0525654 -0.0787999 -0.1117255 -0.0072487 -0.0631595 0.0455846 0.1440245 -0.1253242 0.2818159 -0.0205802 0.0313134 -0.1712458 -0.0697503 0.1524025 0.1956611 -0.0208618 -0.3021082 -0.1188290 -0.0374125 0.1502089 -0.0037709 0.0922602 0.0620123 0.0947605 0.0007556 0.1787903 -0.1578505 0.1226175 -0.0402711 -0.0307627 0.0212616 -0.0519213 -0.0956334 -0.0928276 -0.0241719 -0.1327357 0.0777647 -0.1502472 -0.2588525 -0.1265865 0.1061472 0.0227519 -0.0023401 -0.0563113 -0.0096618 -0.0307195 -0.0069155 -0.0927669 0.0389117 -0.1895856 -0.1992151 0.1779730 -0.1129309 -0.0706144 0.1137543 0.1389583 0.0313783 0.0865684 0.1548444 -0.0332664 0.1175992 -0.0070690 0.0166575 -0.0528246 0.0095801 0.1362421 0.0454966 -0.0124677 0.0509209 -0.0266247 0.1634939 0.0353118 -0.0840711 -0.0807142 0.0279988 -0.0234588 0.0534180 -0.0583202 0.0208504 -0.1074248 0.0784983 0.0368396 0.0686620 0.0221886 -0.0128218 -0.1559286 0.1041227 0.0026538 0.0375114 0.0133040 0.0712950 0.0129784 0.0064331 0.1420800 -0.0071032 -0.0625003 -0.1164206 -0.0899500 -0.1777330 0.0173225 0.0619205 0.0500456 -0.1185178 0.1553055 -0.0316994 -0.0623820 0.0439914 -0.0355336 0.1171500 0.0778281 0.0262657 -0.0612677 0.0784442 -0.0061427 -0.0906930 -0.0059805 0.1771527 0.0745042 -0.1439229 -0.0213962 0.0282072 -0.1349745 0.0639207 -0.1147754 -0.0197575 -0.0769553 0.1109647 0.1390119 -0.0343907 -0.0736306 -0.0102664 0.1327001 -0.3484934 0.0365942 0.0333044 0.1546864 0.0614136 0.0650373 -0.1520150 -0.0246091 -0.0251714 0.0260374 0.0132435 -0.1318091 -0.0404985 -0.0000067 0.1368487 0.0070306 0.1140307 0.0132219 0.1208293 0.1856436 -0.0233466 0.1290009 0.0097161 -0.1511260
PERSONc10 0.0254380 -0.0113938 0.0222635 -0.0464500 -0.0357231 -0.0295618 -0.0816924 -0.0782918 0.0391168 0.1402191 0.0400513 -0.0012448 -0.0646160 0.1825614 -0.0636102 -0.0017177 0.0641490 0.1502738 -0.0538163 0.0990841 -0.0121053 -0.1297331 -0.0430185 0.0748503 -0.0187695 0.0649846 -0.0750834 -0.1693448 0.2137657 -0.1228176 -0.0055079 0.0503034 0.0768572 -0.1895658 -0.1372938 0.0793453 0.1991057 0.0119154 -0.0610662 0.1969816 0.0874705 -0.0093665 0.0038571 -0.1150980 -0.0326164 -0.0651181 0.0744744 -0.0726413 -0.0246435 0.0833004 0.0488003 0.1202288 -0.1269285 0.0041210 0.0886771 -0.1058925 0.0246432 -0.0129911 -0.1463903 0.0858455 0.0631246 -0.0699715 -0.0091816 0.0900196 0.1233157 0.0572939 0.0642630 -0.1006688 0.0722846 -0.1226010 0.0232831 -0.0465231 -0.1974472 0.1062550 0.2056624 -0.1764662 0.1288304 0.0897424 -0.0224127 -0.2185019 0.0449225 -0.0329753 -0.1296121 -0.1301394 0.2118571 -0.0239531 0.1347080 0.1119996 -0.0081634 0.0456922 0.1057122 -0.2544720 -0.1057083 0.0563425 0.0653064 -0.0324596 -0.0463705 0.0828853 -0.0204808 -0.1512400 0.0638860 -0.0684748 0.0259840 0.0476382 0.0082792 -0.1468250 0.0231994 -0.0311291 -0.0050458 -0.0703472 -0.0064518 0.0684920 0.1256861 0.0016807 -0.0045464 0.0930764 -0.0667218 0.0221658 -0.0022800 -0.0620625 0.1416931 -0.1369558 0.0220930 -0.1415168 -0.0832530 0.0438669 -0.0698286 0.0026341 0.0036386 0.0249213 0.0047975 -0.1184074 0.1864948 -0.0027250 -0.0428197 0.0899977 -0.0232963 -0.0832505 -0.2433570 0.0388430 0.0987863 0.1526691 0.0278330 0.0749812 0.0349552 -0.0065118 -0.0113519 0.1100362 -0.0769703 -0.2202095 0.1062871 0.0980085 0.0643383 0.1423904 0.1511325 0.0737117 0.0449778 0.0155364 -0.0378321 -0.1295885 -0.1867052 -0.1927061 0.2767111 0.0195751 -0.1109013 -0.0144741 0.1513272 -0.1124975 -0.1868411 -0.1222341 0.0347521 0.0845782 -0.1037146 0.0161738 0.0105629 0.0553571 0.2712180 -0.2027006 0.1378459 0.1783164 -0.1797544 0.1234145 0.0586922 -0.0025465 0.0035757 -0.0960061 0.0260411 0.1373582 0.1688304 0.0755775 -0.0590516 0.0675422 0.1157408 0.1565814 0.1027375 0.0878568 -0.1700133 0.0166641 -0.0652088 0.0384816 0.0905323 -0.0914923 0.0287040 0.0030392 0.0992429 -0.0282716 -0.0226466 -0.0373501 0.0019493 0.0313850 -0.1081198 0.0308345 0.1100743 0.1404437 -0.1176536 -0.1613233 -0.1486535 0.0617671 0.1075195 0.0312594 -0.2193659 -0.0410660 -0.1270222 0.1549605 -0.0688903 -0.0402840 0.0653735 0.1338057 0.0269536 -0.1372494 -0.1818726 0.1208561 -0.1362587 -0.1799393 -0.0336080 -0.1824741 0.1236223 -0.0485961 0.0735967 0.0370328 -0.0166375 -0.1482825 -0.0236369 -0.0696085 0.0410791 -0.0133766 -0.0484514 0.0734922 0.0267446 0.0584370 0.0063030 0.0027196 0.0856918 0.0985081 0.1202032 -0.1566863 0.0216831 0.0074287 0.2362911 -0.0361285 -0.0298763 -0.0312642 -0.0298446 0.1572995 0.0812420 -0.0140222 -0.0925813 -0.1048799 -0.0761281 0.0105528 -0.0121514 0.0165595 -0.1250564 -0.0505484 0.0217224 0.1487605 0.0638655 0.1221665 0.0611430 -0.0326585 0.0238610 -0.0183302 0.0067132 0.0998285 -0.0588238 -0.1718026 0.1074926 -0.0233641 -0.0361433 0.0134694 0.0676473 -0.0780182 -0.0880119 -0.0616019 -0.0295310 -0.0940980 0.0622225 0.1902887 -0.0212315 -0.1308180
PERSONc11 -0.2069877 0.0319666 0.0374171 0.0421657 0.1201913 -0.0757223 -0.1185339 0.0112973 0.1567388 0.0488005 0.0891132 -0.0790559 -0.1492661 0.0235005 0.0899652 0.0427787 0.1958752 -0.0478324 -0.0344214 -0.2065115 -0.0604364 0.1062258 -0.0173672 0.0835165 0.0126393 -0.0764483 -0.0289533 0.1836559 0.1338983 0.1480589 0.0404649 0.0717114 0.2367829 0.0835104 0.2215828 -0.0481986 -0.1309329 0.0988276 0.0180912 -0.0759368 0.0590997 0.0717301 0.0208155 -0.1073717 0.0119839 0.2350917 0.0175159 0.1967332 0.1233450 -0.0379834 0.0893698 -0.0256590 0.0740544 0.1363269 -0.0392570 0.0117576 -0.0472824 0.1867310 -0.1120727 -0.0778609 0.1128213 -0.0996055 -0.0221357 0.0906768 0.0031693 -0.1469739 0.0058345 0.0955599 -0.1054287 0.1768215 -0.0144364 -0.0468492 -0.0675647 0.0655114 0.0911308 0.0667299 -0.0503771 -0.0726910 0.0872751 0.0330656 0.0369037 0.0393205 -0.0350650 0.1714502 -0.1014243 -0.1060045 -0.0730850 0.0900420 -0.0041697 -0.1124412 0.0097369 -0.0667856 0.1561247 -0.0435931 0.2494431 -0.0240076 0.1212087 0.0362091 -0.0499132 -0.1255861 0.0937099 0.1593794 -0.0544911 -0.0819615 0.1352784 0.0574282 -0.0349606 -0.1627640 -0.0296306 0.0908590 0.0413245 0.0191022 0.0050978 0.1701419 0.0265595 0.0292194 0.0851442 0.0520628 0.1977793 0.1157632 0.0118298 0.0785822 -0.0533118 0.0816095 0.1094498 0.0504965 -0.0487907 0.0601359 0.0729665 -0.1532551 0.0134205 0.0709871 -0.0782412 -0.0019494 0.0051545 -0.0574245 -0.1187979 0.0665376 0.1149396 0.0111713 0.0999553 -0.0900606 -0.0802984 0.0951650 -0.0015102 0.0684998 0.1512268 -0.1564103 -0.0589935 0.0092433 0.0851797 -0.0556364 0.0102539 0.0455065 -0.0760770 -0.1464603 0.1163110 -0.0636813 -0.0473654 0.0774034 0.2040948 -0.0208324 0.1655679 0.0142864 -0.0400869 -0.0685412 0.2209459 0.2315691 0.0155789 -0.0079157 -0.0017005 0.0215087 0.2978416 0.0098886 -0.0005401 0.0195542 0.0525220 0.0498459 0.0379931 -0.0703610 0.2011439 0.0453839 0.0457601 0.0329090 0.1444397 0.0715465 0.0572925 0.0438489 -0.0783767 -0.0339871 0.1684247 -0.1160195 0.0941923 -0.0876662 -0.0664138 0.0441870 -0.0636606 -0.1012071 0.0182774 -0.1865250 0.0632192 0.0774764 0.1764402 -0.0501600 0.0615556 0.0221943 0.0527059 -0.0103115 -0.0875452 0.0948068 0.0009280 -0.0280115 -0.1048479 0.0467651 0.0306911 -0.0019306 -0.0184624 -0.2064134 0.0724613 -0.0103903 -0.0850420 0.0566932 -0.0933906 0.1604845 -0.0222813 -0.0942295 -0.1124592 -0.0386753 0.1173944 0.0687916 -0.0935531 -0.0826925 -0.0588852 -0.0858741 0.1949639 0.0955683 -0.0303373 0.1658581 0.1081664 -0.0211633 -0.0775475 0.0825262 -0.0687284 0.0661251 -0.1151029 -0.1407511 -0.0537638 -0.0481322 0.0639659 -0.0709395 -0.2057345 0.0359122 0.0901120 0.0581627 0.0672518 0.0616887 -0.0232766 -0.0895151 -0.0514440 0.1014066 -0.0439128 -0.0325210 0.1414162 0.0630657 0.1627339 -0.0509768 0.0677935 -0.0331973 0.0606344 0.0015365 0.0945561 -0.0671081 0.0019046 0.0821962 0.1922565 0.0135410 -0.0296671 -0.0615256 -0.0983201 -0.1158498 0.1235550 -0.1604309 0.0689589 0.0551777 0.0343838 -0.1290819 -0.0494503 0.0790670 -0.0705084 0.0205924 0.0652296 0.0393348 -0.0536631 0.0710968 0.1244349 -0.0725735 -0.1873554 0.0649390 -0.0162969 0.0410095
PERSONc12 0.2445564 0.1227302 0.0624216 -0.0780305 -0.0120511 0.1425289 0.0930074 -0.0724647 0.0926609 0.0957088 0.0114393 0.0554468 0.0313164 -0.0445548 -0.1205011 -0.0286968 -0.0411507 0.0285556 0.0936813 -0.0093863 0.1838269 -0.0463836 -0.0123171 -0.1422519 0.0564159 0.0104974 0.1302003 0.0741005 -0.0570475 -0.0413761 0.0219638 -0.0175453 0.1321816 0.0310821 0.0827260 0.0971415 -0.0756652 -0.2004971 0.0843218 -0.1018466 -0.1411632 -0.0780980 0.0294932 -0.0967715 -0.3218653 -0.0069329 -0.0900093 -0.0731996 0.0460613 -0.1491041 -0.0270784 0.0310143 0.0633919 -0.0680179 0.1771419 -0.0220746 -0.1362282 -0.0427341 -0.0427220 -0.0437647 0.1296797 -0.1845027 0.0292245 -0.1447578 0.0943144 -0.0684969 0.1429088 0.0072504 -0.1298333 0.1084761 0.0645808 -0.0997710 0.0162174 0.0181461 0.0624691 -0.0211074 -0.0389911 0.0597013 -0.1327669 -0.0022305 -0.0862740 -0.0155496 0.0083091 0.0870723 0.0252248 0.1262709 -0.0143653 -0.1085274 -0.0167049 0.0356421 -0.0840027 -0.0073999 0.0835282 0.0358356 -0.0527277 -0.0414328 -0.0649549 0.1386471 -0.0786085 0.0163657 0.0353042 0.0231282 -0.0161387 -0.1260170 -0.0935268 -0.1022840 0.0011004 -0.1145855 -0.0522093 -0.1597535 0.0385303 0.0498247 -0.0285402 -0.0326627 0.0769084 -0.0859318 -0.0657149 -0.0699888 0.0665918 -0.0800442 -0.0466273 -0.0446187 -0.0471332 -0.1133747 0.1145430 0.0362246 -0.0046169 0.1397251 -0.0516664 0.0670494 -0.0510284 -0.0457674 0.1179262 -0.0420458 -0.0191332 -0.0025301 -0.0573479 -0.0636600 0.0532232 0.0722465 0.0618366 -0.1843487 0.1902103 -0.0363435 0.0336024 -0.0195248 0.0787250 -0.1091127 0.0952610 -0.0001507 -0.0024200 0.0285077 -0.0059272 -0.1656238 -0.0518408 -0.0900916 0.0008838 0.1477831 0.0145031 -0.1220348 -0.0451454 -0.0352874 0.1096494 -0.0134577 0.1064111 0.0070178 0.0429661 -0.0650550 0.0163850 0.0560166 0.0946031 -0.0176316 -0.0098004 -0.0270985 0.1734708 -0.1261954 0.0781064 -0.1406788 0.0066940 0.0538247 -0.0209451 -0.0512747 0.1532873 -0.0113330 0.1413635 -0.0242630 0.0774024 0.1265428 0.0604013 -0.0538126 -0.0953845 -0.0170759 -0.0801131 -0.0510065 -0.1306745 0.0698697 0.0825363 -0.1924182 -0.0084004 0.0377566 -0.0136207 0.1353122 0.0742115 0.0208712 -0.0327425 0.0162210 -0.1545070 -0.1677461 0.1792136 -0.1095342 0.1052138 -0.0527349 0.1351633 -0.0995069 0.0681871 -0.2133396 -0.1201860 0.0177959 -0.0095431 0.0081925 0.0532509 0.1467780 0.0172849 0.1129328 0.0474478 0.1128777 -0.0801358 0.0467543 0.0666454 -0.1459346 -0.1314491 -0.0435003 -0.0280070 0.1073986 0.0108677 -0.0606886 -0.0007351 -0.0790680 0.0393322 -0.2285271 -0.0644566 0.0300168 0.0810336 0.1931969 0.1057965 -0.0289250 -0.0023146 0.1200209 0.1525594 -0.1622029 -0.1740466 -0.0511396 -0.0416375 -0.0065747 0.0542046 -0.0541131 -0.1214487 -0.0395410 0.1176905 0.0969381 -0.0635586 0.0038265 0.0388819 0.0539899 -0.0721306 0.1443709 0.0274851 -0.1137874 0.1153381 0.0333995 0.0369324 -0.0215471 -0.0702426 -0.2039152 -0.2258336 0.0679155 0.1519419 -0.0297526 0.2640396 -0.1120375 0.0345627 0.0132684 0.1752911 -0.0518733 0.0573332 -0.0221171 0.1584684 -0.1511164 -0.0412897 -0.0361755 -0.1150464 -0.1657808 -0.0126424 -0.1253469 0.0005857 0.1307310 0.0279616 0.0116859 0.1015998 0.0288494
PERSONc13 -0.0526232 0.0815629 0.0084639 0.0104885 0.0806101 -0.0384031 -0.0259418 0.0034660 -0.1288269 -0.0154417 0.1059968 0.0246693 -0.0475833 0.0449209 0.0140655 -0.0541674 0.1130510 -0.0420853 -0.0752804 -0.0108323 0.1714370 -0.0117831 -0.0308937 -0.0976198 -0.0531557 -0.0638208 0.0050966 -0.1128176 -0.0169475 -0.0002712 -0.0445891 0.2190919 0.0396755 0.0413349 0.0474773 0.1531853 0.1391949 0.0103085 -0.1413147 -0.0254973 -0.0186696 0.0042557 0.0439435 -0.1248768 0.1195969 -0.0635794 -0.0562809 -0.2339954 -0.0366661 0.1633101 0.1723588 -0.0526089 0.0038156 -0.0338342 -0.1261258 0.0455592 0.0374150 0.0186465 0.0434766 0.1470837 0.0024843 -0.0182665 -0.0586874 0.0735671 0.0473717 0.0547885 0.0700634 0.0024882 0.0383589 -0.0944093 0.0297845 -0.0416269 0.1796425 0.0089929 0.0456790 0.0573387 0.0742853 -0.0499409 0.1640922 0.1240101 0.0526836 -0.0035162 0.0817282 0.0652229 0.1911662 0.0064008 0.0217981 -0.0881357 0.0764268 0.0380927 -0.0112085 0.0589849 -0.0875869 -0.0530880 -0.0339524 0.0492190 0.0207818 -0.2068276 0.1368393 -0.0076851 0.0172612 0.0128712 0.2070691 -0.0573748 0.0610679 -0.0118580 -0.0602149 -0.1335661 -0.0707837 0.0931211 -0.0189573 -0.0049553 -0.0987358 -0.0705779 0.0229290 -0.1156624 -0.0301424 -0.0459243 -0.0938080 -0.0042783 0.0052073 0.1650964 -0.2508615 -0.1112585 -0.0922715 -0.0933945 -0.0615654 0.0162007 -0.0611872 -0.1068492 -0.0067346 -0.1086864 -0.0143142 0.0252789 0.1296724 0.2779168 0.0721940 -0.0206010 -0.1669274 0.0352433 0.0783252 0.2403182 0.0228454 0.2020629 -0.1251457 0.0800534 0.0277445 -0.1621283 0.0792062 0.0616812 0.0068978 0.1065388 0.0659686 0.1751139 -0.0333411 -0.0949440 0.0884648 0.1451000 -0.1194280 0.1679845 0.0540340 0.0601589 -0.1913969 -0.1044634 0.0289157 0.3007927 0.0620648 0.0066800 -0.0220207 0.0169584 -0.0321649 -0.0317742 0.1197552 -0.0655720 0.1144224 -0.0514759 -0.0346745 0.0447290 -0.0502718 0.0439653 -0.0115967 0.0526886 -0.0480927 -0.1874126 0.0148447 0.0921072 0.0783712 0.1512732 -0.0348656 0.0889559 0.1162126 -0.0128808 -0.0291679 0.2648857 -0.1074309 -0.1750144 0.0356099 0.0176245 0.1728200 0.0171389 0.0983719 0.0761229 -0.0288095 0.0784052 -0.0038842 0.0745372 -0.0220799 0.0098393 -0.0438919 -0.1757416 -0.0399453 0.2089958 -0.0288780 -0.0863367 -0.0428581 0.0460205 0.0968396 0.0172513 0.2407660 -0.0326484 0.1207533 -0.0756715 -0.2250944 0.0440434 -0.0296027 -0.0686053 -0.0576280 0.0664030 0.1321129 0.1049432 -0.1083269 -0.1234039 0.0249726 -0.0636983 0.1691966 -0.0163439 -0.2203369 0.0886780 0.1218354 -0.1211734 0.0043067 -0.1791228 0.0641626 -0.1512346 -0.1010976 0.0304416 0.1872055 0.0837398 0.0981200 0.0353120 -0.0248275 -0.1026674 -0.0356387 0.0988133 -0.0287574 0.0573352 0.0357208 0.0247663 -0.0258849 -0.0725298 0.0079419 -0.1342747 -0.0523154 0.1647076 0.0001468 0.0172673 -0.1488451 0.0018286 0.0617680 0.1645665 0.0697547 0.0417558 0.0098197 0.0315903 -0.1082258 0.0113455 0.0079437 -0.1102621 0.0541507 -0.0870688 0.0936055 -0.1333673 0.1143867 -0.0797728 0.0177924 -0.0381044 -0.0266805 -0.0315394 -0.0902082 0.0088262 -0.1025609 0.0048627 -0.0645620 -0.1044739 0.0962739 -0.1420491 0.1295447 0.0257848 0.0759942 0.1277381
PERSONc14 -0.0651352 -0.0451241 0.1865260 0.0043061 0.0944471 -0.0028023 -0.0833143 -0.0532490 -0.1696275 0.0119665 0.1724709 0.0250522 0.2729945 0.1333355 0.0071652 -0.0063608 -0.0588404 0.0475269 -0.0126041 -0.2010049 0.0992683 -0.0074221 -0.1299274 0.1203158 0.1569653 0.0466663 -0.0899239 -0.0450245 0.1023111 0.1020826 -0.0399069 0.1379275 -0.0521642 0.0631702 0.0544653 -0.0347490 -0.1380308 -0.2238455 0.0455135 -0.0771604 -0.0670709 0.1190896 -0.1263336 0.1104022 0.1241619 0.0017919 0.0116550 0.0247955 -0.0432865 0.1568588 0.1169255 0.0110368 0.0049835 -0.0341709 -0.0188727 0.1292161 0.2475085 0.1857439 -0.1467964 -0.0504557 -0.2226826 -0.1149115 -0.1029937 -0.0105417 0.0370961 0.1498615 -0.0260843 0.0614054 0.0443819 -0.1859127 0.0015524 -0.0505647 -0.0418000 0.0221121 -0.1040246 -0.0602403 -0.0797014 0.0483454 0.0882360 0.0233732 0.0012857 -0.0623292 0.0351191 -0.0168269 -0.0105985 -0.0872943 0.0889428 -0.0051251 0.0228463 -0.1475585 0.0610472 0.0188889 0.1183403 0.0838718 -0.1086686 0.0079698 -0.1289928 -0.0650790 0.0394062 -0.0991647 -0.2030373 -0.2049211 0.0611322 0.0812633 0.1339557 -0.1130110 0.1150732 0.0139150 -0.0745958 -0.2586175 -0.2173073 0.0091764 0.0499755 0.1375739 0.0530530 -0.0511340 -0.0868211 -0.0422477 -0.1525185 -0.1309491 0.1861910 0.0401478 -0.0710934 -0.1443702 0.0038042 0.2763187 0.1008649 0.0268363 -0.1471794 -0.0089195 -0.0378862 0.0322509 -0.0249874 0.1468230 0.0442226 -0.0462733 -0.1211377 -0.2448411 -0.0955745 0.1634230 0.0777684 0.1080360 -0.1096658 -0.0407362 -0.0310381 0.1099071 -0.1093143 -0.0620794 -0.1193052 -0.0261067 -0.0340022 0.1789030 0.0191519 -0.0455276 0.0778606 0.1984442 -0.1212330 0.1022843 0.1405846 -0.2208450 0.0977185 -0.0505848 0.1221406 0.2111371 -0.0066376 0.0584083 -0.0868817 0.0478393 0.0816307 -0.0699954 0.0629180 0.1051604 0.0669581 -0.0536882 0.0458288 0.0700060 0.0218850 -0.0839615 -0.2017877 -0.0236677 -0.1107830 0.0082228 -0.0205699 -0.0525508 -0.1439184 0.0873431 0.0572738 0.1548720 0.0388745 -0.1155388 -0.0219041 0.0529583 -0.0844987 0.0290717 0.0453709 -0.1021267 0.0779180 -0.1149672 0.0912183 0.0634245 0.1492819 -0.0148004 -0.0987533 0.1439479 -0.1984059 -0.1030780 -0.0415186 -0.0288961 0.1014401 0.0969934 0.0661782 0.1719504 -0.0794109 -0.1053159 -0.1111677 -0.0898694 0.0424761 0.0619011 0.1279728 0.0798271 0.0590256 -0.1345673 0.1098904 0.0559553 -0.0004739 0.1411931 0.0525917 -0.1352559 -0.2769564 -0.0962369 -0.0082164 0.0738894 -0.1159630 0.1225417 -0.1715169 0.1339759 0.0335920 -0.1020502 0.0309382 0.0772412 0.0499032 -0.2335544 -0.0846388 0.0166353 0.0598325 0.0526969 -0.0207962 0.0585691 0.0422737 0.2005665 -0.0090823 -0.1753212 0.0396502 -0.1963328 -0.0356105 0.0855355 -0.1629612 0.1219475 -0.0005182 -0.1114489 0.0281547 -0.0345203 -0.0241251 -0.0142350 0.1119422 0.1557614 -0.0687370 -0.0304233 -0.0490781 0.1141328 0.0053180 0.0631434 -0.0368969 0.1698706 -0.0668138 -0.0439966 -0.1568410 0.0145148 0.0218590 0.0567384 0.0893106 -0.0631739 -0.0653394 0.1556029 0.1896766 -0.0488379 0.0579626 -0.2174119 0.1312650 0.1729173 -0.0484977 -0.2305409 0.0869154 -0.0145107 0.1113607 0.0793252 -0.2378368 -0.0396114 0.1749639 0.0168595
PERSONc15 -0.0509942 0.1340894 0.0154708 -0.0169156 -0.0619071 -0.3807317 -0.0203935 0.0107602 0.0721495 0.0761295 0.0123068 -0.0466301 -0.1927528 0.0379427 0.0052130 -0.0758589 -0.0755491 -0.1148168 0.0059391 0.0341608 0.0106498 -0.0319020 -0.0277971 0.0447013 0.0472249 0.0058024 -0.1201779 0.0484741 0.0347176 0.1244969 0.0789367 -0.0623524 -0.1628299 0.2129205 -0.0481436 -0.1747767 -0.0139274 0.2084250 0.0370037 -0.0319207 0.0394188 -0.0245750 0.0784977 -0.0146921 0.2371098 -0.0068400 -0.1624077 -0.1370031 0.1244678 -0.1441110 -0.0932098 0.0383683 0.0719239 -0.1202318 0.1384029 -0.1192820 -0.0352797 0.0518186 -0.0493823 -0.0375806 -0.0167237 0.0256116 0.0572825 0.1304635 0.0131609 0.0365970 -0.0543585 0.0425358 0.1607973 0.1286938 -0.0267685 -0.0870975 0.0286678 -0.2939427 -0.0109434 -0.0921693 0.0841584 -0.1090504 -0.0421086 -0.0106713 -0.1394665 -0.0373582 0.0819100 0.0066350 -0.1281243 -0.0781922 -0.0295153 -0.1396145 -0.2373113 0.0687261 -0.0062359 0.0036591 -0.0127186 -0.1361448 0.0437995 -0.0778058 0.0041789 -0.0495337 0.0055334 -0.0596773 0.0657717 0.0313050 -0.0329373 -0.0835857 -0.2682428 -0.0111327 0.1368984 0.0824496 -0.0808290 0.0680876 0.2112640 0.0714528 0.0969894 -0.1115492 0.0646291 0.0568492 -0.0163306 0.1265367 0.0429378 0.0111224 0.0516049 0.0410712 -0.1851830 0.1043024 -0.1298138 0.1004701 -0.0678655 0.0344065 -0.0201687 0.0087923 0.1097997 0.0098000 0.1157906 0.1189700 -0.1171693 0.1120066 -0.0567111 0.0320755 0.1178649 -0.0191427 0.1233280 0.0897889 0.0489683 -0.0815298 0.0093579 -0.1976656 0.1238810 -0.0330106 0.0343901 -0.0520571 0.0161817 -0.1645419 0.2034684 -0.0833103 0.0040028 0.0609221 -0.0993515 0.0600694 -0.0595419 -0.1186494 0.0727377 0.0557068 0.2726696 0.0765466 -0.0373663 -0.0697537 0.0142758 -0.0780525 -0.1166367 -0.2965277 0.0951089 0.0539655 -0.0094777 -0.1814617 -0.0454260 -0.0158794 0.0708709 -0.0190838 -0.0619089 -0.2187567 0.0650440 0.0424998 -0.2394957 -0.0453738 -0.1568311 -0.0495333 -0.0394974 -0.0715473 -0.0596975 0.0223726 0.1184218 0.0909386 0.1022219 -0.0091274 0.1831962 0.1959411 -0.0100100 -0.0481526 0.0563717 -0.0810174 0.1070327 0.0170576 0.0143785 -0.0072938 -0.0350542 -0.0267011 0.0579411 0.1505786 0.0838033 0.0266899 0.0058214 -0.1168446 -0.0456390 -0.0083949 0.0710803 0.0033981 -0.2180659 0.1014534 0.1561123 0.1475589 0.0956669 -0.0135747 0.0672777 -0.0569368 0.0084374 0.2144829 -0.1267295 0.0787235 -0.0157769 -0.1239575 -0.0351890 -0.0089424 -0.0564822 0.0576934 0.0124896 -0.0759059 -0.0034771 -0.0469027 0.0165419 -0.0566874 0.0284297 -0.0786341 -0.1248941 -0.0803106 0.0715880 -0.0391564 -0.0218839 -0.0687519 -0.0084689 -0.1063954 0.0158112 -0.1017522 0.0965946 -0.0121038 -0.0267523 -0.0524948 -0.1346616 0.0760892 0.0875886 -0.0232398 -0.1384451 -0.0254438 -0.0177381 0.0198528 0.1620907 0.0307136 -0.0061962 -0.1069442 -0.1341305 -0.0072724 -0.2096899 0.0306248 0.0223994 -0.0593246 -0.0140879 -0.1498487 0.0688760 -0.1393201 0.0610511 0.0119150 0.1253526 -0.2157885 0.0110065 -0.0079687 0.0647749 0.0679844 -0.1500543 0.0759247 0.0265012 -0.1022483 0.0129224 0.0125657 -0.0157165 0.1768546 -0.0775847 0.0883083 -0.0283720 0.0287031 0.0169191 0.0973515
PERSONc16 -0.0683699 0.0244436 -0.0554483 -0.2011465 -0.2234508 -0.0646530 -0.1163874 -0.0937561 0.0269948 -0.1459463 -0.1502938 -0.0580246 -0.0519460 -0.0627647 -0.0279207 0.0802917 -0.1044025 0.3292357 0.1189557 0.0893511 0.0718398 0.0167010 0.2459002 -0.0252962 0.1585370 -0.0742219 0.0783581 -0.0211460 -0.0282016 -0.0115789 0.0492987 0.0843951 0.2377345 0.0583524 -0.1637135 0.0229849 -0.1008016 -0.1128153 -0.1590697 -0.0099177 -0.0467335 -0.1363932 -0.0366441 -0.0645053 0.1226483 -0.0626969 0.0116715 0.0786059 0.0699579 -0.0181895 -0.0985344 -0.0002205 0.0713044 -0.1790538 0.1527836 -0.0343627 0.0203497 -0.0057390 0.1500920 0.0331815 0.1562453 -0.0455774 -0.2077609 -0.0355202 -0.0263033 0.2363913 -0.0704884 0.0312862 0.0693128 -0.1595703 0.0623831 0.0490565 0.2267480 0.1066470 0.0249301 0.0102161 -0.1758856 0.0146901 0.0641838 0.1455471 0.0669904 -0.1111302 -0.0590522 0.1311198 -0.0614634 0.0029943 -0.0064932 -0.1464609 -0.0172565 0.0057506 0.1033557 -0.0136496 -0.0220423 -0.1113624 -0.1282899 -0.0329676 -0.1239029 0.0413899 -0.1361847 0.0678693 0.1082498 0.0771069 0.1577904 0.0538088 -0.0821388 -0.0801063 -0.0944954 0.0761442 -0.1653219 0.0311421 0.0677558 0.0834255 0.0546189 -0.0522673 -0.0843544 0.0398148 -0.0694120 -0.2394676 -0.0522668 0.0047429 -0.0139829 0.0203430 -0.2046586 0.0711491 0.0130164 0.0438077 -0.0616088 -0.0029226 -0.0967752 0.0747866 -0.0080770 -0.1596400 -0.0526517 -0.0717917 -0.1503998 0.0942053 -0.0342810 0.0850316 0.0402931 -0.0093041 -0.1422500 -0.0075973 -0.2015893 0.0536758 -0.0733270 0.0680417 -0.1354682 -0.1068961 -0.0376159 0.0255934 0.0115827 0.1293395 0.0484499 0.0190771 0.0594849 -0.0531546 -0.0290059 0.1268035 0.0686823 0.1439731 -0.0246630 -0.0612653 -0.0596621 0.0799476 0.1544083 0.1648172 -0.0132380 -0.1273627 0.1399376 -0.0663113 0.0379447 -0.0300221 0.0835984 -0.1545043 0.0811157 -0.1163351 -0.0376212 -0.0577271 -0.1276461 0.0734323 0.0098312 0.0231689 -0.1461629 0.0847074 -0.0232607 0.0942240 -0.1037581 0.0656644 0.2295442 -0.0616138 -0.1125734 -0.0369711 -0.1362136 -0.1029902 -0.0182284 -0.0399217 0.0981849 -0.0158339 0.2330512 0.0068583 -0.0881217 -0.1259846 0.0644373 -0.0057024 0.1616216 -0.1314516 0.0340814 0.0127909 0.0429704 -0.0216852 -0.0418931 0.0071401 0.0198748 0.1315434 -0.0944503 -0.1398256 0.2688174 0.0027376 -0.0222469 0.0853209 0.1191396 -0.0128037 -0.0023978 -0.0849791 -0.0922578 0.0350786 0.1489858 -0.0029241 -0.0963539 0.0664098 -0.0290689 0.0382593 -0.1207446 -0.1279736 -0.0801951 0.0485217 0.1859863 -0.0064691 0.0761638 0.0355895 0.0377828 -0.0076528 0.0431284 -0.0988601 0.1815219 -0.0516933 -0.0537070 0.1127039 0.1453120 -0.0166114 0.0020755 -0.0668571 -0.1177703 -0.1028403 0.0312395 -0.0095672 -0.0281422 -0.1005530 0.0934430 -0.0528605 0.0024996 -0.0140429 0.0890203 -0.0446424 0.1500405 0.0168814 -0.1119126 0.0099026 0.1245506 0.0153206 0.0765725 0.1748276 -0.0791138 -0.1341431 0.0533762 -0.0925944 0.0383623 -0.0833337 0.2561357 -0.0497255 -0.1820415 -0.1011607 -0.0794497 0.2810478 -0.0185581 -0.1005233 -0.1511554 0.1524190 -0.0579076 -0.0076523 -0.0657255 -0.1209710 0.1412555 0.0236663 0.0305771 0.1540066 -0.0399904 -0.0339799 -0.1777432 -0.0264191
PERSONc17 0.1425390 -0.0331852 0.1959326 -0.0164010 -0.0541251 -0.1525705 0.1665375 -0.0834658 0.0658214 0.0039716 0.0698615 -0.2139673 -0.1080038 0.0619923 -0.2289841 0.0146876 0.0646910 0.0101178 -0.2258747 -0.1065568 0.0146982 0.0717825 0.1027846 0.0985323 0.1320843 0.0815715 0.0805465 0.0834454 -0.0100364 -0.0304273 -0.0103488 -0.0148122 0.0426302 -0.0095798 0.1016246 -0.0322955 0.0403732 0.0377014 0.0751829 -0.0432788 -0.0255784 -0.1082568 -0.1037012 0.1017285 0.0625561 0.0011531 -0.0557092 -0.0519405 0.0676732 0.2075284 -0.1778880 -0.0887438 0.0126204 -0.0672818 -0.1173097 -0.0426507 0.0317492 0.0227200 -0.1992494 0.0090846 0.0632193 -0.0577670 -0.1335070 -0.0083854 -0.1093866 0.0778872 -0.1041643 0.1712687 -0.1921037 -0.1755799 -0.0837983 -0.2544035 0.2300713 -0.0388686 -0.0132794 0.0463844 0.0859385 0.1081987 0.0571930 -0.0182742 0.0828961 -0.0960410 -0.1448156 -0.0788682 0.0686794 -0.1566441 0.0440806 -0.0062415 0.1123032 0.0089437 -0.0316362 -0.1502789 -0.0012834 -0.2143073 -0.0978934 0.0140557 0.1117181 -0.0440057 0.0547009 0.0894015 0.0669621 -0.0349776 -0.0364442 -0.2320649 -0.1054382 -0.0725191 0.1197841 -0.0077136 -0.0858239 -0.0957835 0.0996756 -0.0782687 -0.0983819 -0.1711439 0.1346581 0.1273421 -0.1619049 0.1213609 0.0968917 -0.0388118 0.0776120 0.0093306 -0.1140840 -0.0640673 -0.1099879 0.0353487 -0.0323876 -0.1120954 -0.0379604 0.0705054 -0.2696682 -0.0418448 -0.0619529 -0.0679125 -0.0169123 -0.1589148 -0.0337529 -0.0013874 -0.1250534 0.1173243 -0.0936278 0.0253464 0.0609333 0.1444815 -0.0355240 0.1109208 -0.0515380 0.0769294 0.0440519 -0.0485693 -0.0373363 -0.1548051 0.0352009 0.0855222 0.0551456 0.1073924 -0.0078323 -0.1077772 -0.0505417 -0.0714219 0.1126680 0.0012125 -0.1584734 -0.1504790 0.0500636 0.0123347 -0.0562481 0.1123571 0.0904087 -0.1185401 -0.0653717 -0.1146195 -0.0034568 -0.0304897 0.0274206 0.0301901 -0.0184723 -0.0033157 -0.1070795 -0.1389810 -0.0540541 0.0886529 -0.1689120 0.1660240 0.0831749 0.1273625 0.1219325 0.0570493 -0.1077500 0.0484766 0.2901100 -0.0203515 -0.0348059 -0.0189772 0.0582436 -0.0885229 0.0021421 -0.0590090 0.1228064 -0.1375403 0.1560184 -0.1847337 0.1239082 0.0873920 -0.0059105 -0.0673929 -0.0366995 -0.0106499 -0.0763429 0.0175529 -0.0011356 -0.0954630 0.0048757 -0.1493051 -0.0417892 0.0262325 0.0115702 -0.0247942 0.0641850 0.0221483 0.1612018 -0.0216422 -0.0633706 0.0323741 -0.0101221 0.2046747 -0.0825089 0.1047466 0.0133554 0.0373690 -0.0355549 -0.0569029 0.2530048 0.0548624 0.0090834 -0.0526215 -0.0777153 0.1059952 -0.0688956 -0.1424203 -0.0237286 0.0386396 -0.1014889 -0.0591615 -0.0704084 -0.2369313 0.0604519 -0.0305358 -0.0552443 0.1378146 0.0970994 -0.1179217 0.0765186 0.0133003 0.0359028 -0.1127725 0.1009920 0.0752947 0.0194016 0.2159142 0.1203326 0.0815068 0.0246072 -0.1156904 0.0390341 0.0692949 0.0538223 -0.0390296 -0.0259231 -0.0082780 -0.1042534 -0.0916658 0.0979361 0.0477851 -0.0115318 0.0276729 0.0696982 0.0915963 0.0945247 -0.0364887 0.0663945 0.2190494 0.0808366 0.0724655 -0.0252224 -0.0818436 0.1348380 0.0533372 0.0318939 0.1424745 -0.0224646 -0.0660844 0.1053643 -0.0684090 0.0025962 0.0904349 0.1707460 0.0031812 0.0135482 0.1257409
PERSONc18 -0.1313042 -0.0069250 0.0610934 0.0884803 0.1152825 -0.1442815 0.0382488 0.0402763 0.0985372 -0.0470302 0.1106570 -0.1149897 -0.0681584 -0.0899236 0.0835631 0.1696153 -0.0299268 0.1117781 0.1620817 0.0260131 -0.0129895 -0.0743221 -0.1769795 -0.0208738 0.2109620 0.0029503 -0.0349069 -0.0985124 0.0562953 -0.1042257 -0.2165109 0.0494816 -0.0188013 0.2302046 -0.0814264 -0.1598853 0.0174451 0.1273395 0.1074948 -0.0198403 0.0006348 0.0736358 -0.0410749 0.0334408 0.0688628 0.0468875 0.0725681 0.0310915 0.0870605 -0.0413288 0.1344714 -0.1135729 0.0401393 0.0176339 0.0511591 0.0529243 0.0319849 0.0036847 -0.0772958 0.0868437 -0.1574924 0.0851693 -0.0667724 0.1436249 -0.0794312 -0.1290267 0.1618046 0.0377140 0.0249832 0.1499561 0.0827556 -0.0439362 0.0581264 0.0848648 0.0641940 -0.1463499 -0.0323348 -0.0335234 0.1387881 -0.1204545 -0.0266868 0.2219783 0.0091949 -0.0181537 0.1185593 -0.2623459 -0.1389921 0.1071929 0.1413873 0.1924298 -0.0657825 0.1346144 0.1905132 0.0273185 0.0520629 -0.1301898 -0.0226968 0.0457335 -0.0595650 -0.1259302 -0.0642666 0.0758501 -0.0274855 -0.1458646 0.0791747 0.1214702 0.0355845 -0.1959607 0.2698329 -0.1623432 0.1633571 0.1012379 -0.0006927 0.1300248 0.0858319 -0.0807798 0.0756368 0.0458645 -0.1335696 0.1529942 -0.0970149 0.0761924 -0.0506263 -0.1339896 0.2304949 0.1836131 -0.0926610 -0.0715894 0.0034788 0.2038702 -0.1127721 0.1046598 -0.0396478 0.0156374 -0.0586918 -0.0838685 -0.0490608 0.1516971 -0.1164625 -0.1448998 0.0030760 0.0246331 -0.1054959 0.0071073 -0.0615680 -0.0688344 -0.0340853 0.0275404 0.2529081 -0.0141539 -0.0834271 -0.0592164 -0.0833634 -0.1146476 -0.1167589 0.0108863 -0.0798333 0.0929277 0.2907426 0.1167402 -0.2628274 -0.0920885 -0.0364721 -0.0675503 -0.1432230 0.0775733 -0.1100007 0.2111385 -0.0775274 0.0918097 -0.0307264 0.0775966 0.0398318 -0.0426443 -0.0004381 -0.1253054 0.2396709 0.0974638 -0.0377247 -0.0959246 -0.0103542 0.2216488 0.0169046 0.1167720 0.0699344 0.0347594 -0.1441595 0.1005842 -0.0468117 -0.0115508 -0.1259146 -0.0637304 0.0852468 0.0948066 0.0390828 -0.0226930 -0.0978922 -0.0512988 -0.0818194 0.1389358 -0.0034315 -0.0591014 -0.0023244 0.2035308 0.0978895 0.0470176 0.1257022 0.0177368 -0.0785302 0.1307084 0.1441827 -0.0501178 -0.2678636 -0.0429927 0.0256078 -0.0137341 -0.0656787 -0.1164270 -0.0486646 0.0965510 0.0145044 0.0549821 -0.0271062 0.1390838 0.0888490 0.0987049 0.1468152 0.2699480 0.0445574 0.1608962 -0.0381977 -0.0547852 0.1155048 0.0938643 -0.0766323 -0.0857724 -0.0585867 0.0383375 -0.1367711 -0.0226659 -0.0167167 0.0355535 -0.0311239 -0.0793433 -0.0596905 0.0533585 -0.0337291 -0.0188268 0.0256986 -0.0144648 0.1064669 0.0519164 0.0329359 -0.1039123 -0.0569567 -0.1820652 0.2322955 0.0455881 0.1368333 -0.0639247 -0.0243619 -0.0109001 -0.0922948 -0.1669368 0.1971015 0.1145338 0.0253996 0.0756160 -0.0074011 -0.1069154 -0.0042770 -0.0348595 0.1464059 -0.2737450 -0.0752567 0.0197456 0.0181825 -0.1322911 -0.0277806 0.1096012 -0.0584701 0.0757809 0.0128619 0.0328582 -0.0927360 -0.0530219 0.1496213 0.1348474 0.1595240 0.2508775 0.1527259 0.1331684 -0.1255925 -0.0561061 -0.0831666 -0.0961417 0.1328888 0.0128400 -0.0036192 0.0354429
PERSONc19 -0.0321450 0.1100014 0.1094661 0.2235668 0.0304569 0.0881081 0.0014337 -0.0963279 -0.1047722 0.0113931 -0.0484126 -0.0198621 -0.0131666 0.1176171 -0.0262877 0.0482977 0.0857952 -0.0148094 -0.0283461 -0.0863592 0.0867622 -0.1640516 -0.0115626 -0.0755861 -0.0572033 -0.0672266 0.0086011 -0.0439417 -0.2086538 -0.0036570 0.1122664 0.0746177 -0.1185478 -0.0307808 -0.0175789 0.0802424 -0.0537819 -0.0120739 -0.0134501 0.2116728 0.0932799 -0.0294044 -0.0554600 0.1074966 -0.0760657 -0.0448090 0.0384582 -0.1425335 0.1411552 0.0275349 0.1984515 -0.0344187 0.2183955 -0.1138179 -0.1311497 0.0846738 0.2544219 -0.1856627 -0.0387865 -0.0547914 0.0972076 0.1011066 0.0857159 0.1293312 0.1822389 0.2173771 0.0671690 0.0096828 -0.0043603 -0.0052249 -0.1952546 -0.1567893 -0.0282722 -0.0236110 0.0598163 -0.0640051 -0.0178030 -0.0171328 -0.1639399 -0.0453433 -0.1269594 -0.0901245 0.1269233 0.0606167 0.0529447 0.0183034 0.0802804 -0.0758250 0.0327697 -0.0224411 -0.2130383 -0.0853334 0.0652975 -0.0832570 0.1024832 0.0363559 0.1875208 0.0864079 0.0415133 -0.1711501 -0.0335241 -0.0789598 0.1087867 -0.1192658 0.0667960 -0.0489576 -0.3147096 -0.0452837 0.1104167 -0.0443711 -0.1969835 -0.2150954 0.0717856 -0.0140774 0.1593644 0.0599956 -0.0927503 0.0357561 -0.1069817 -0.1303835 0.0054655 0.0361608 0.0325526 0.0883507 -0.0722250 0.0214535 -0.1306125 -0.0261280 0.0624403 0.3234797 0.0229187 -0.1287778 -0.1312317 -0.1020923 0.1099681 -0.2515427 0.1490507 0.1629743 0.0344672 0.0338279 0.0715958 0.2266955 0.1014034 -0.1090148 0.0626143 0.0549435 -0.1450145 0.0549815 -0.0631119 0.1808264 -0.0983798 -0.0368837 -0.2062548 0.0829633 -0.0479199 0.0195546 -0.0481190 0.1204641 -0.0065723 -0.0156479 -0.0077656 0.0868140 0.0029418 0.0147946 0.0793419 -0.2172952 0.1022434 -0.0351503 -0.0383888 0.0737049 0.1174716 -0.1070444 -0.0237576 -0.1068281 0.1716886 -0.1506634 -0.1113002 -0.0592040 0.0873896 0.1299378 -0.0216571 -0.0178478 0.0385859 0.0119610 0.2505437 0.0962474 -0.0383472 0.0746029 0.0250046 -0.0878331 0.0543541 0.0751017 -0.1126928 0.1329223 0.2388918 0.0186756 0.0229062 -0.0031840 -0.1937936 -0.0258132 -0.1849772 -0.0248981 -0.0437341 -0.0180920 -0.0236543 0.0280785 0.1332286 -0.0257808 -0.0187717 0.0824171 -0.0464653 0.0399397 -0.0999003 0.2184153 0.0348955 -0.0380558 -0.0717117 -0.1334589 -0.0274926 -0.1791220 -0.0528542 -0.1531952 0.1459072 0.0004606 -0.0468062 0.1630166 -0.0336659 0.0223500 0.0124334 0.1920308 0.0552930 0.0036462 0.0137344 -0.0389646 -0.0785113 0.0206249 0.0904761 0.0653449 -0.0803413 0.0683039 -0.0378235 0.1062685 0.0538476 0.0368386 0.0389089 -0.0403624 0.1551293 -0.0002439 0.1576158 -0.1100979 -0.1777465 -0.0337287 0.1202648 0.1835275 -0.1406147 0.0647983 0.0497696 0.1306507 0.0003390 -0.0159870 0.1930284 -0.0144518 -0.0792959 0.0557031 -0.0494521 -0.0678183 0.0663166 -0.0397925 -0.0533261 0.0437850 0.0384952 -0.1897455 -0.0046297 0.0968033 0.1066793 0.1162818 -0.1731868 -0.0887537 0.1116158 0.0853526 -0.0061953 -0.1260226 0.0338915 0.0859735 0.0603795 -0.0015564 0.2046583 0.0037779 -0.1689772 -0.1584150 0.0231994 -0.2250518 -0.0509663 -0.0763818 -0.1216053 -0.0648707 -0.0294811 0.0771048 -0.0496970 0.1715780
PERSONe1 0.0266566 0.0606869 -0.1084564 -0.0654945 0.0721287 -0.1477388 -0.0802398 0.0892365 0.0445014 -0.0374605 0.0344546 0.0839188 0.0724592 0.2448457 -0.0957045 -0.1068429 -0.0169776 -0.0248614 -0.1582991 0.0813378 -0.0583166 -0.0092057 -0.2209166 0.0794972 0.0068108 -0.2302678 0.0412965 0.0124253 -0.1069181 0.0851770 -0.0156401 0.1979024 -0.0133159 -0.0452266 -0.2068199 -0.0579461 0.0905076 -0.0557957 -0.0225227 -0.0182163 0.0765605 -0.0195308 0.0466268 -0.0745606 -0.2069313 -0.1885871 -0.0337114 0.1375611 -0.1261265 -0.0932779 -0.0623840 -0.0271616 0.0334203 0.1219921 -0.0534924 -0.0310736 -0.1650821 -0.0040691 -0.0663367 0.0112005 0.0208423 0.1910214 0.0040490 -0.1143820 -0.0809397 -0.1247558 0.0817360 0.0508415 0.1961012 0.0440410 0.0375588 -0.0772101 0.1236791 -0.0808113 -0.0951271 -0.0619456 -0.0482267 0.1250029 0.1004143 -0.1540211 -0.0628749 0.0336949 -0.0083273 -0.0758222 0.0103028 -0.2129980 -0.0329844 -0.1246431 0.0162918 0.0538847 0.0121188 0.0654362 0.0194446 -0.0173974 0.0562314 -0.1428681 0.1263009 -0.1539904 0.0651829 0.1281819 0.0643139 0.0060331 -0.0678651 0.0823598 -0.1078000 -0.0830040 -0.0070148 0.0217638 0.0749935 0.1439562 -0.0688498 0.0787196 -0.0827011 -0.0079052 -0.0286512 0.0360438 0.2654797 -0.0925681 0.0427574 -0.0250265 0.0968979 -0.1102717 0.0407300 0.0163746 0.1671156 -0.0854911 0.0405852 0.0647644 0.0125237 0.1185053 0.0217992 -0.0068637 0.1511670 0.0719040 -0.1096379 0.0150376 0.1215173 0.1958539 -0.1343237 0.0825138 0.0290152 -0.0473846 -0.2338127 -0.0676463 -0.0152154 0.0596626 0.0520315 -0.0471002 -0.0443355 0.0362379 0.0622020 -0.0060429 0.1630802 0.0886694 -0.0083803 0.0347468 -0.1361747 -0.0859790 -0.0601059 -0.0159070 -0.0283904 0.0066607 0.0684853 -0.1195133 0.0414412 0.2904934 -0.1029085 -0.0790617 0.2533358 0.0052290 -0.0497789 -0.0117965 0.0570728 -0.0070167 0.0571305 0.0678753 -0.1892180 0.0209738 -0.0540137 -0.0809919 -0.0814793 0.0470918 0.1633472 -0.0939171 -0.1859075 -0.0861042 0.1102329 -0.0457521 0.0282598 -0.0561378 -0.0722708 0.0883311 -0.0255905 -0.0440740 -0.0426096 -0.1854795 -0.0351435 0.0861167 0.0557952 -0.1161745 0.0755671 0.1239348 -0.1545286 -0.1781387 0.0048380 0.0256695 -0.0171180 0.0589617 0.2124294 -0.1144386 -0.0267682 -0.0042522 -0.2394276 0.0306375 0.0530946 0.0268498 -0.0654272 -0.0202220 0.0839651 0.0471022 0.1355909 -0.0032097 -0.0748144 -0.1382101 -0.0612803 -0.0451027 0.0343422 0.0504600 0.0672924 0.0119156 0.0014478 0.0496731 -0.0266032 -0.1732084 -0.1654222 0.0101795 0.0269766 0.0953974 0.0402234 -0.0249182 -0.0593374 0.0565145 0.0023888 0.0385947 -0.0889167 -0.1159933 -0.0192997 -0.1360410 0.0609969 0.1293304 0.1126329 0.0206523 -0.1560217 0.2243200 0.2211634 -0.0098033 0.0972148 -0.0081800 -0.0604644 0.0445932 -0.0205799 0.0511074 -0.0340056 -0.0656570 0.1816302 -0.1434485 -0.2361110 -0.0196122 -0.0070818 -0.0362538 0.0882419 -0.0973219 -0.1066996 0.1288873 -0.0720463 0.0751125 0.1932855 -0.0996456 -0.0594305 0.0469467 -0.0500161 0.1598130 0.0550218 -0.1599303 -0.0263309 -0.1036374 -0.1284138 -0.1180304 0.1378459 0.0685737 -0.0281393 0.0454757 -0.1347113 -0.1340700 -0.1058404 -0.0931545 0.1974465 0.2158913 -0.0214960 -0.1544811
PERSONe2 -0.0812706 0.0712254 -0.0772230 0.0328920 0.1642464 -0.0597894 0.0338059 0.0395293 -0.1731781 0.1909572 -0.0056995 0.0935870 -0.0597278 -0.0608189 0.1084183 0.3912302 -0.1035104 -0.1356048 -0.0614389 -0.0637994 -0.0544175 0.0277527 -0.0750779 0.1100472 -0.1033156 0.1657507 -0.0316167 -0.0213745 -0.0679090 -0.0397995 0.0606560 -0.1194575 -0.0631880 0.0037936 0.0176185 0.1151943 0.1002697 -0.2008434 0.0322222 0.1182835 -0.0313446 -0.1779633 0.0647695 0.1283382 -0.0697095 0.0497058 0.0833134 0.0597418 -0.0397493 0.0493165 0.0977894 0.0507801 0.0539569 -0.1133466 0.1104328 -0.1020414 0.0620534 0.0123850 -0.0305540 -0.0347118 0.0337238 -0.0702824 0.0293368 -0.0372294 -0.1578091 0.0019617 0.0119240 0.0936854 0.1183396 -0.1688649 0.1482662 0.0451106 -0.0013307 0.0884747 -0.0220175 -0.0442950 0.1138599 0.0861624 0.0755903 0.0375652 -0.0406095 0.0919934 0.1545579 0.0746470 0.0225695 -0.0043097 -0.0344586 0.0455702 -0.1256190 0.0022397 -0.0954806 -0.2587129 -0.0020021 -0.1089103 0.0291089 -0.0008418 -0.0062615 -0.0838658 -0.0556762 -0.0038372 0.1206942 0.0968328 0.1043613 -0.0312192 -0.0169650 0.0787071 0.1933696 0.1498841 0.1471920 0.1152075 0.1577660 0.0145815 -0.0187984 -0.0284936 -0.1229334 -0.1833666 -0.0090023 -0.1814571 0.1024221 0.0270479 -0.0603796 -0.1465661 -0.0278711 -0.1809453 -0.3088927 0.1578512 -0.0971274 0.0116108 -0.0233095 0.2507747 0.0300130 0.0751426 -0.0218654 0.0362506 -0.0753277 0.0572800 -0.0298987 -0.0015583 0.1096582 0.0413558 -0.1572621 0.0573744 -0.0116871 0.0378120 -0.2059148 0.1041966 0.0871888 -0.0971283 -0.0691007 0.0510023 -0.1181361 0.1171953 -0.0202732 0.1070187 0.0521727 0.2045912 -0.1402229 0.0995545 0.0107819 0.0373270 0.0518329 0.0283739 -0.0887547 -0.0788469 0.1080152 0.0517607 -0.0374606 -0.0040581 0.0897147 -0.1028366 0.1459928 0.0236410 0.0792241 0.0059062 -0.0204536 -0.0576733 -0.0402382 0.0069747 0.1273709 0.0409681 0.0293962 0.2328493 -0.0471927 -0.0066533 0.1212077 0.1240024 0.0502035 -0.0006929 -0.0377631 0.0177020 -0.0053959 -0.0884451 -0.0039736 -0.0852471 -0.2694500 0.2305771 -0.0166029 -0.0183590 0.1350777 0.0349124 0.0545247 -0.3365477 -0.0749940 -0.0149068 -0.0378408 0.0163326 0.0976676 0.1516747 0.1332042 0.1510830 -0.1919328 -0.0428198 -0.0139252 -0.1333899 0.0900540 0.0996730 -0.1003049 0.0154974 -0.0600533 -0.1395966 -0.1344191 0.0716173 -0.1512495 -0.0959994 0.0303318 0.0985603 0.1489263 -0.0396513 0.0076788 0.0176575 0.0060680 0.1095807 0.2157979 -0.0617040 -0.1071649 0.0446969 -0.0793533 -0.0739351 -0.0258513 -0.1010338 0.0120535 0.0064753 -0.0663757 -0.0751797 -0.0673023 -0.0922606 0.0428125 -0.0178204 -0.1202948 -0.0121506 0.0827296 -0.0212113 0.0864009 0.2513183 0.0056897 -0.1296062 -0.0844808 -0.1007897 -0.0981472 0.1613808 0.0758578 -0.0298892 -0.0946098 0.0909493 0.0585175 0.0586203 0.0493176 -0.0163823 -0.0725693 0.1166940 0.0811934 0.0522297 -0.2102531 -0.0759809 0.0300343 0.1035377 -0.1258675 0.0186830 0.0108501 0.1765365 -0.2371173 -0.0756787 -0.1318266 0.1581726 -0.0159051 -0.0172340 -0.1792252 -0.0786545 0.0951897 -0.0711509 0.1360761 0.0946643 -0.0739376 0.1018980 0.0891962 0.0929061 0.0297642 0.1399688 0.0754364 0.0963865
PERSONe3 0.0333862 -0.0210496 0.0018841 0.1056750 -0.0722131 -0.0551927 0.0247175 -0.0037542 0.0160605 0.1049766 0.1063394 0.2578436 -0.0384252 -0.0762165 0.1581114 -0.1198437 -0.2317438 -0.1409525 -0.0231194 0.0759672 0.0379123 -0.1523891 -0.0630923 0.0367058 -0.0189537 0.0443745 -0.0110850 0.0572365 -0.1545940 0.0762808 0.0435847 0.0724878 -0.0847299 -0.0557595 -0.1459004 0.0368419 0.0953423 0.0739346 -0.0718846 0.1179646 0.1340753 -0.2033191 0.1220088 -0.1588719 0.0427994 -0.0680909 0.0639853 0.0089557 -0.1289465 0.0012087 0.0371628 -0.1574375 -0.0041406 -0.1387443 -0.1108838 0.1269396 0.0380193 0.0648829 0.0652750 0.0007842 -0.1077412 0.0339419 -0.1091278 0.0055876 -0.0164716 -0.1327201 0.0189775 -0.0637912 -0.1175305 -0.0714512 -0.2930768 -0.0829726 -0.0205417 0.1142946 0.0880230 -0.0066500 -0.0394722 -0.0127122 -0.0461060 -0.1181698 0.0554498 -0.0380154 -0.0652578 0.1171241 -0.2511012 -0.0519423 0.1788776 -0.1126365 0.0378294 0.1122867 -0.0404421 0.0133305 0.0682773 0.1861488 0.1097190 -0.1932952 -0.0884112 -0.0438683 -0.0727643 0.0782013 -0.0953875 0.1428546 0.1001801 0.0239105 0.0348284 0.2201721 0.1422542 -0.0653946 -0.0414028 0.0316165 0.0661606 0.1468806 -0.1975614 0.0878896 0.0502209 0.1838094 0.1430917 0.0524444 0.1251172 0.1396530 -0.1524051 0.0451155 -0.0750554 -0.0421509 0.0338254 0.0910837 0.0621458 -0.1227518 -0.0953187 -0.1092281 0.0303865 -0.0077633 -0.0901465 0.0413182 0.0024311 -0.0070080 -0.1521880 0.0428211 0.0045854 -0.0018398 -0.0459105 -0.0608148 0.1124174 -0.1496376 -0.0179323 0.0585979 -0.0600296 0.0712219 0.0891836 0.1122975 0.1055600 0.0114954 0.1940822 0.0584153 -0.1052298 0.1098907 -0.0032803 0.1369958 -0.0289735 -0.0475378 0.1263294 0.0830099 0.1052681 -0.0128495 -0.0953377 0.0515339 -0.1004516 0.1448948 -0.0099471 -0.1040273 -0.0499973 -0.0385521 0.0059773 0.0911631 -0.0224360 -0.0650486 -0.0244886 -0.0874015 -0.0199937 0.1007438 0.0539645 0.0942522 -0.0706878 -0.1260780 0.1018021 -0.2223284 0.1592293 0.0024364 -0.0492240 -0.1375554 0.1956796 -0.0590455 0.1118896 -0.0518645 0.1059338 0.1575671 0.0704944 -0.0251785 -0.0863479 -0.1489332 0.1534581 -0.0292585 0.0303262 -0.1075097 -0.1398030 0.0099955 -0.1608390 -0.1074561 0.0956087 -0.1517123 0.0353192 0.0563880 0.0930836 0.0004691 0.0274645 0.0392331 0.0343239 -0.1045837 -0.1998175 0.1250869 0.0623951 0.0420292 -0.0586993 -0.1111711 0.1026328 -0.0317924 -0.0321773 0.1251908 -0.0049669 0.1466316 0.0805032 0.1029786 0.0475016 -0.1785723 -0.0650276 0.0504116 0.1494965 0.2329553 0.1798855 -0.1615656 0.0734549 -0.0894827 -0.0852705 -0.0975630 0.1121368 -0.0574454 0.0213621 -0.0985666 0.0182791 -0.0114973 -0.0960893 0.0642538 -0.0391584 0.0227248 0.0181634 0.1374574 -0.0912400 0.0340195 0.0754623 -0.0498365 0.0101999 -0.0131940 0.1429867 0.0427351 -0.0063263 0.0943852 0.1223739 0.2571789 0.0069717 0.2320241 -0.0066029 -0.1233835 -0.0711636 0.1322317 0.0440477 -0.0808911 0.0573294 -0.0758716 0.1314675 -0.0249039 0.0443445 0.0994288 -0.0470423 0.0245331 -0.1853845 0.0721689 0.0801785 -0.0982781 -0.0823979 0.0910622 -0.0305259 -0.0200352 0.1060782 -0.1282106 0.1309414 0.2068314 -0.0701404 -0.0797153 0.1138767 -0.0889114
PERSONe4 -0.1638324 0.1464822 0.1213388 0.1348661 -0.0656778 -0.0678382 -0.1313733 0.1349272 0.0638133 -0.0093631 0.0155710 -0.1512312 0.1368391 0.0085712 0.0915857 0.0409569 0.0774410 0.0044212 0.0768965 -0.1797814 0.0538199 0.0421990 0.0893632 0.0023014 -0.1494284 0.0276242 0.1162914 -0.1188532 0.0497315 -0.0940667 0.0227239 -0.0009358 -0.0663274 0.0724845 0.1190089 0.0911861 0.0066916 -0.0189966 -0.1885798 0.2169768 -0.0399624 0.0099283 -0.0148691 0.0385340 -0.0103315 0.1133422 -0.0654012 -0.0564017 -0.0307694 -0.0161750 -0.0179252 -0.1420816 -0.0311938 -0.0175789 0.1507706 0.0994269 0.1279958 0.0324143 -0.1283012 -0.0971614 0.0246225 -0.3456215 -0.0372041 -0.1044716 0.2476361 -0.1230295 -0.0590114 0.0114517 -0.0278970 -0.0283076 -0.1983334 0.2173649 -0.0662554 -0.1555701 0.0065451 -0.0556759 0.0100176 -0.0134825 -0.0957153 -0.0172824 0.1243654 0.0772777 -0.0783941 0.0544408 -0.1387094 0.1756045 -0.0938010 0.0292271 -0.0292134 -0.0923520 0.1024736 -0.0663823 -0.0690513 0.0065762 -0.0613927 -0.0010809 -0.0637734 -0.1026941 0.0389011 -0.1401991 0.1282317 -0.0682050 -0.0938208 -0.0025782 -0.0533348 0.1732130 -0.0889029 -0.0660039 0.0578132 0.0874001 0.0773317 0.0359440 -0.0586519 0.0135638 -0.0881095 0.0201805 0.1062235 0.0018885 -0.0195644 0.0389091 0.0494150 -0.0478104 -0.0324322 0.0366589 0.1151776 -0.0838566 -0.1795681 -0.0580234 0.0114628 0.0073514 0.1214836 0.2057857 0.0539528 -0.1015800 -0.1121924 0.0020886 0.0604175 0.0638691 0.0410719 0.0562767 -0.0029188 0.0185532 0.2064235 0.1786073 -0.1153611 0.0940139 -0.1671353 0.1285791 -0.1629861 0.0243875 -0.0328660 0.0741377 0.0242793 0.0535741 0.1575547 0.0108501 0.0413259 -0.0962808 -0.0773541 -0.1189947 -0.0815619 0.0624673 -0.0240170 0.0083375 -0.0105565 0.0051278 0.0749260 -0.2901409 0.0973260 -0.1263170 0.0085293 0.0699660 0.0453670 -0.1315645 0.0325321 -0.2376276 -0.0769049 -0.0769309 0.3421254 0.0499137 -0.1619917 0.0436616 -0.0566026 0.0925970 0.0314045 -0.0851252 0.0930826 -0.0359305 0.1055674 -0.1936863 0.0393911 0.1184383 -0.1753008 -0.0483424 0.0231752 -0.1435234 0.1159921 0.0082223 -0.0751712 0.0310118 0.0853067 0.1462990 0.0745885 -0.0242249 -0.0671115 0.0219948 0.1199507 -0.1086760 -0.0020058 -0.1184133 -0.0291707 0.0057602 -0.0117108 -0.1027555 -0.0929616 0.0114747 0.0553019 -0.1182596 -0.1094612 -0.1173217 -0.0179079 -0.1925181 0.0535411 -0.0947090 -0.1168358 0.0012226 0.0859940 -0.2387153 0.1087800 0.0461682 -0.0347673 -0.0354902 -0.1474716 -0.0595464 -0.0656695 0.0038663 -0.0254291 -0.1224440 0.1325722 -0.0622474 -0.1156630 -0.1427523 -0.1187737 -0.1419141 -0.1350980 -0.0521140 -0.0379672 0.0535343 0.1107967 -0.0202255 -0.0450283 0.0731323 -0.0177865 -0.0540622 0.1980381 -0.0103908 -0.0497182 -0.0808558 -0.1341360 -0.0209776 0.0516943 -0.1280397 0.0172116 0.0541621 0.0197256 0.0003595 0.0465589 0.0474418 0.0085884 0.0029692 0.0102040 0.0752575 -0.0403360 0.1336336 -0.0290388 -0.1013495 0.1587999 -0.0054587 0.0813724 -0.0387805 0.0958810 -0.0492937 0.1766503 -0.0513596 -0.0321463 0.0238316 0.0708793 -0.2054182 -0.1144534 -0.1345336 0.1356823 -0.1188506 -0.1936987 -0.0067926 -0.0092745 -0.0640378 -0.0889995 0.3490473 -0.0526853 -0.1184833
PERSONe5 0.1033741 -0.0244382 0.1852300 -0.1546395 0.0701556 0.0361438 -0.0913165 -0.1505679 -0.0787499 0.0118950 -0.0605632 -0.1532550 -0.0085657 -0.1713103 0.0654136 0.0102221 -0.1017496 -0.0500394 -0.1785894 -0.0940947 0.0612339 -0.0712387 -0.0915502 0.0285890 0.1696648 -0.0839986 0.0364427 0.0331569 0.0268873 -0.0147679 -0.0403620 -0.1674433 -0.1655993 -0.0090050 0.3249684 0.0622518 -0.0182288 -0.2855113 0.0918783 -0.0718946 -0.0545385 -0.0282040 0.0630264 0.1076617 0.0881604 -0.0369088 -0.0242317 -0.0495897 0.0414982 0.1626216 0.1559245 -0.0183212 0.1029363 0.0520408 -0.0204238 0.1228388 0.0394968 0.0496808 0.0281322 0.0959735 0.0884102 -0.0282794 0.1575413 -0.0000554 -0.2078819 0.1140524 -0.0814051 0.0067640 -0.0943352 -0.1666361 -0.1288232 0.1723066 -0.0347756 -0.0867713 0.0619492 0.0575141 -0.0836292 0.0368420 -0.0697173 -0.0693260 -0.0450847 0.0234084 0.0708302 -0.0313343 0.1266269 -0.0279066 -0.1152837 0.0072480 -0.0134274 -0.1045723 -0.1657446 0.1548318 0.0159886 0.1108109 0.1113803 -0.0851250 -0.0021235 -0.1179061 -0.1211470 -0.1002105 -0.0257134 0.1010066 0.0557196 -0.2234797 0.0498870 0.0913186 0.0003775 -0.0813567 -0.0438588 -0.0390849 -0.0247120 -0.0228402 0.0042608 -0.0794939 -0.1347477 0.2487671 0.2391093 0.0508796 0.0777886 -0.0857205 0.1302068 -0.1962847 -0.0138049 0.0377473 -0.0120968 0.1126939 0.0395068 0.0905580 0.0708162 0.0868304 0.1497794 -0.1635891 0.0075550 0.0856900 0.0720163 -0.1307612 -0.0479859 -0.0607452 -0.0011233 0.0478358 0.1049231 -0.0094445 0.1422348 -0.0177131 -0.2009996 0.0340935 0.0120256 0.1163954 -0.1013139 -0.2033621 0.0978989 -0.0400202 -0.0249241 -0.0578472 -0.0100662 0.0920891 0.0255662 -0.0593252 0.0913346 -0.0470424 -0.0331555 -0.0287697 0.0748902 0.1168269 -0.1575020 -0.0611898 -0.1328299 0.1172661 0.0469655 0.0984924 0.1017966 -0.0887089 0.1295164 -0.0887589 0.0797946 -0.0245523 0.0608787 0.1258942 -0.0778695 0.0471528 0.0479860 0.1262125 -0.0141147 0.0481303 -0.1711654 0.0570778 0.0306463 -0.0981337 0.0371349 0.0663101 -0.1969305 0.0045692 -0.0395779 0.0341036 -0.0528989 0.0480846 0.0461388 -0.0096785 0.0140510 -0.0321318 0.0430596 0.0025455 -0.1700655 -0.0034705 0.0124271 0.1561561 0.1105497 0.2060058 -0.0829700 0.0430302 0.1213340 -0.1041771 -0.0171737 0.0754123 -0.0333372 -0.0927838 -0.0868906 -0.0046447 0.1135666 -0.0648145 0.1097478 0.0567128 0.0778689 -0.0222075 0.0924119 -0.0447939 -0.1311094 0.0721857 -0.1646124 0.0256495 -0.1922513 -0.0648019 -0.0295248 -0.0151220 0.0811078 -0.1208811 0.0905702 0.1807238 0.0233727 -0.0651617 -0.1910043 -0.2209260 0.0288303 0.0090230 0.1262332 -0.0079766 0.0022288 -0.1350182 0.1721535 -0.1402755 -0.0825063 0.0056341 0.0083145 -0.0181468 0.0275359 -0.0577607 -0.0037374 0.0053336 0.0173131 0.0420498 0.0845891 -0.0400062 0.0509075 0.1089542 0.0935708 -0.0222447 0.0871802 -0.0108583 -0.0238818 -0.0412082 0.0209222 -0.1507268 -0.0441904 0.0354026 -0.0343766 -0.0764140 -0.0113363 -0.0569299 0.1902438 -0.0433825 0.1203034 -0.2235176 -0.0065276 0.0171541 -0.0666965 -0.1468336 0.0630594 -0.0173957 0.0912098 -0.0208475 -0.1424316 0.0579630 -0.0788485 -0.1453457 -0.1106693 0.0710509 0.1225239 -0.0050226 -0.1222365 0.0096720
PERSONe6 -0.0463275 -0.2113391 -0.1339764 0.1410866 0.1928576 -0.0610699 -0.0118973 -0.0032634 0.2699101 -0.0079403 0.1411176 -0.0813348 -0.0781645 0.0208183 0.0140907 -0.0686833 -0.0746455 -0.0208315 0.0426594 -0.0564783 0.1114121 0.0494200 -0.0605221 -0.1253401 -0.0717261 0.1245688 -0.1133877 -0.0595010 -0.0105435 -0.0485379 0.0983870 -0.1689896 -0.0437707 -0.0498604 -0.0399411 0.2634908 -0.0383225 0.0138655 -0.0892599 -0.0689155 -0.0125114 -0.1250660 -0.0015095 0.0015858 -0.0269302 0.0387778 0.0273768 0.0821300 -0.0560312 -0.0978388 0.0120384 -0.0481923 0.0328132 -0.0777144 0.0010807 0.1999260 -0.0681901 0.0610015 -0.1203112 -0.0470232 -0.0614963 0.0299833 0.0522670 0.0001336 -0.2115389 0.0246056 0.0207590 -0.0675060 -0.0487000 0.0630068 -0.0100176 0.0076271 -0.0160818 -0.0033612 -0.1010006 -0.0379935 -0.1463206 0.1306625 0.0922570 -0.1742544 0.1887712 -0.2618441 -0.1849700 -0.0782687 0.0476150 -0.1222818 -0.0862843 -0.2165412 -0.0483067 -0.0238615 0.0147016 -0.0882392 0.0767590 -0.0195031 0.0412070 -0.0380467 0.0015900 0.0299155 0.0978627 -0.0764186 -0.1601902 0.0902278 -0.0193716 0.0487412 -0.1233335 -0.0066660 0.0928660 -0.0875070 0.0246744 0.0988703 -0.0483877 0.0064884 0.0359545 -0.0810899 0.0328088 0.0154631 0.0011444 0.0349717 0.1947923 -0.0631493 -0.0242320 -0.1568541 -0.0323938 0.0725880 -0.1696759 -0.1109491 -0.1412306 -0.1335217 -0.1191481 0.1151165 -0.0893860 0.1497244 0.0628416 -0.1613084 0.0363562 0.0744445 -0.0664864 -0.1640824 -0.0065575 0.0692850 0.0310632 0.1102248 0.1367461 0.0600285 0.0897152 -0.0865501 0.1918898 -0.0239198 -0.1787257 0.1272290 0.0410173 -0.0085898 -0.0810150 -0.0421194 0.2309565 -0.0298252 0.0074466 -0.0164604 0.0601017 -0.0879734 -0.0378865 0.0345191 0.0336685 -0.1529200 0.2162336 0.0817277 0.0786461 -0.0036602 -0.1115017 -0.0205925 -0.1588378 -0.0911520 -0.0571185 0.0338073 -0.0303002 0.0141897 -0.0061318 0.0608186 0.1458996 -0.1113557 0.0064538 0.0307088 -0.1268794 -0.1205580 -0.0844064 -0.0045732 0.0880236 0.0376635 -0.1059157 -0.0236250 0.1364188 -0.0124674 0.0503576 0.0206449 -0.0561798 -0.0390961 0.0046907 0.1973279 -0.1927527 0.1360284 0.1320134 0.0068301 0.0010009 0.1377902 0.1389956 -0.0012975 -0.0370608 0.1824396 -0.0113813 0.0893086 -0.0833236 0.1865050 0.0688766 0.0509349 -0.0083641 -0.0320204 -0.1314603 -0.0080620 -0.0842855 -0.0684558 -0.0011340 0.0541685 -0.0253400 -0.0038118 -0.0125806 0.0826299 0.0455608 -0.0928209 -0.0168175 0.0567369 -0.0518219 -0.0572934 0.2584122 0.0448600 0.0700279 0.0920905 0.0704721 0.1419206 -0.0634617 0.2270350 -0.0678526 0.0829830 0.0602800 0.1910584 -0.1762277 0.0579342 0.2161258 0.0701546 0.0186627 -0.0230650 0.0482289 0.2018303 0.0049696 0.0151437 -0.1379418 0.0569543 -0.0013208 0.0154557 -0.0456132 0.0760327 0.2889631 0.0451044 0.0808780 -0.0117390 -0.1857627 0.0979420 0.1882294 0.0610779 -0.0835785 -0.0310746 -0.0911869 0.0181800 0.0157285 0.0986709 0.0367403 -0.0858156 -0.1586876 -0.0002041 0.0879504 0.0673989 -0.0475674 0.1558005 0.1134581 -0.1038643 0.0601905 -0.0406174 0.0710293 -0.0380469 0.0656266 -0.0055753 -0.2214137 -0.0454642 0.1120027 -0.1845008 0.0068214 -0.0624374 -0.0820828 -0.1488325 -0.0604585 -0.0422949
PERSONe7 0.0323704 0.0246631 0.0586765 -0.1452219 -0.1054159 -0.1432453 0.0086754 0.1179357 -0.0949627 -0.1427574 -0.0508031 -0.1153563 -0.0445390 0.0222680 -0.0731126 0.0289188 0.1091929 0.0072871 -0.1267852 0.0476599 0.0065116 -0.0328895 0.1282520 0.1816745 0.0669330 -0.1186514 -0.1072764 -0.0394466 -0.1032229 0.0302099 -0.0377959 -0.0204311 0.0490574 0.0058526 -0.0446285 -0.0396708 -0.1206796 0.0561418 0.0757596 -0.1334726 -0.2224588 -0.0091436 0.0503542 -0.0174707 0.0348457 -0.1386915 -0.1279650 -0.2290011 0.0204327 0.0770646 0.1118669 -0.0436843 0.1785500 -0.2149815 0.0953263 -0.0527750 -0.0224450 -0.0403136 -0.0503389 0.0309452 -0.0127252 0.1144687 -0.0450648 -0.0442441 0.1155853 0.0643149 0.1514235 0.0962261 0.1055680 0.0756818 0.1545909 -0.0528659 0.0209725 -0.0431074 0.0480920 -0.0510852 0.0271197 0.2643809 0.0491920 0.0414962 0.0436532 0.0721596 -0.0074285 -0.0933776 -0.0519909 0.0370535 -0.0195519 -0.0751409 0.1017896 0.0025175 -0.1338023 -0.0315468 -0.0041312 -0.1083215 -0.0715088 0.0228863 0.0465766 0.0303615 0.0407535 -0.0569512 -0.0151425 0.0254688 -0.1033629 -0.0132421 0.0493262 -0.0489942 0.0264285 0.0128858 -0.0090798 -0.2111066 0.0073477 0.0579459 0.1501367 -0.0578074 0.1362270 -0.1032040 -0.0121308 -0.0480597 0.0127411 0.0862728 -0.0129297 0.1782935 -0.1162877 -0.2101774 0.1078675 -0.0306427 0.0365636 -0.1134282 -0.1664527 -0.0023946 -0.0382071 -0.2067953 0.0040477 -0.0145069 0.1120848 -0.1068488 0.0294255 -0.0705017 -0.0169209 0.0363214 0.0660406 -0.2208257 -0.0397712 -0.0063186 -0.0243278 0.0369989 0.1852303 0.0611043 -0.0503156 -0.0231939 0.0207449 -0.0158970 -0.0038885 -0.0152545 -0.0258217 -0.0681187 0.0662989 -0.0125657 0.1515157 -0.0891306 0.2031753 -0.0319882 -0.0781128 0.0678222 0.0301238 0.0892454 0.0786232 0.1693424 0.0117813 0.0969819 -0.0090666 0.0644797 -0.2646455 0.0990954 0.0515121 -0.0268675 -0.1253558 0.0250522 -0.0708336 0.1583980 -0.0425360 0.1577378 -0.0971947 0.0643304 0.0952367 0.0481898 -0.0600306 0.1484975 0.0644574 -0.0378932 -0.0204334 -0.0259457 0.0839457 0.0080874 0.0833373 0.0202509 -0.0739237 0.0453231 0.0640573 -0.0053566 -0.0907503 -0.0659126 0.0134825 -0.2024981 -0.2803910 0.1631685 -0.0244093 -0.1381946 0.0350966 -0.0965058 -0.0992519 0.1060822 0.0583468 -0.1356393 -0.2063074 0.1136696 0.0784921 -0.0145186 -0.1021931 0.0490246 -0.0398740 0.0454284 -0.0217181 0.0704510 -0.0825302 -0.1344645 -0.0678939 0.0472797 0.0291339 0.0044919 0.0511737 -0.2258919 0.0481683 0.0058219 0.2457483 -0.1532746 0.0274731 0.0187631 -0.0763377 -0.1138040 -0.0181282 0.0442195 -0.0706746 0.1997526 0.1008909 0.0550620 0.1419335 -0.0070169 -0.1210513 0.2024563 -0.1382776 -0.0924549 0.0541586 0.0425719 0.0216438 0.1736358 0.0812772 -0.1249189 -0.1645253 0.0080491 -0.1599161 -0.0732833 0.0868774 -0.0403548 -0.0748297 0.0354388 -0.1408338 0.1047322 0.3103000 0.1704036 0.0487847 0.0217346 -0.0324537 0.0885526 0.0306846 0.1206789 0.0525612 0.0166261 -0.1323806 0.0427272 -0.0385987 0.0297141 0.1890297 -0.1119307 -0.1030310 0.0471895 0.0959534 -0.1141402 -0.0466941 0.2147413 0.0314333 0.2526472 0.0976155 0.1301446 0.0230118 -0.1058832 -0.1669262 0.0125210 0.0119455 -0.2090750
PERSONe8 -0.0391099 0.0728806 -0.0679583 -0.0302920 -0.0325233 0.0403907 -0.0918378 0.0231883 -0.0362898 -0.0620915 -0.1629927 0.0425093 -0.0640321 0.0172074 -0.0399531 0.0486697 0.0956182 0.0570435 -0.0055879 -0.0431289 0.0378536 0.0927400 0.2106770 -0.0553664 -0.1099752 -0.0085966 0.0119115 -0.0882603 0.0365407 0.1167783 -0.0899634 -0.0621399 -0.1994415 0.1121580 0.0975419 -0.0297529 -0.1396120 -0.0366158 -0.0495190 0.0810532 -0.0516642 0.1158493 -0.0380888 -0.0452777 0.1494816 -0.0091951 0.0338564 -0.1787079 0.0758872 0.0475529 -0.1901493 -0.2055638 -0.1097432 -0.0401355 -0.0066497 -0.0530630 0.1154224 -0.0549127 -0.0916147 -0.0010637 -0.0614662 0.0593646 -0.0391435 0.1669473 0.0527087 -0.0305614 0.0350619 0.0774623 0.1437014 -0.0230657 -0.0065494 -0.1417484 -0.0910661 0.1635421 0.0219335 0.0487644 -0.0370656 -0.0033537 -0.0198816 0.0340258 -0.0508772 -0.0024471 0.0824724 0.0519260 0.0959887 -0.1056045 -0.0116766 0.1700211 -0.0237287 -0.1503215 -0.0646939 -0.0646700 -0.0358327 -0.0303994 0.0156062 -0.0193126 0.0365570 -0.0056058 -0.0211763 0.1438714 0.1126978 -0.0204374 0.0443003 -0.0263104 -0.0096962 -0.0011952 0.1446830 -0.0954986 -0.1054846 0.0420345 -0.2922996 0.0937571 -0.0685841 0.1338166 -0.0639830 -0.1343547 -0.0763090 0.0487349 -0.0467917 0.0884139 -0.0939865 -0.0242041 -0.1475068 -0.0728218 0.1846720 0.0170014 0.1260316 0.0737557 -0.0678676 -0.0220902 0.1067022 -0.0689760 -0.0025448 -0.0740984 -0.0739203 0.1962147 0.0366729 0.0248066 -0.0840813 0.1549986 0.0841279 -0.0817192 0.1355537 0.2034025 0.1682498 0.0009363 0.0323422 0.1952049 -0.0769811 0.1313454 -0.0337804 0.1429668 -0.0780420 -0.1049175 0.0835600 -0.0948979 0.0357627 0.1597506 0.0040577 0.0638128 0.2422432 0.0176831 -0.0411071 0.1642744 0.1289341 -0.0652916 -0.0039760 0.0443432 -0.0077533 0.0510818 -0.0893530 -0.0617670 -0.0119109 -0.0898958 0.0097577 -0.1722031 -0.0453035 -0.0314932 -0.1490690 0.0617501 0.1030877 -0.0376500 -0.0354480 0.1022449 0.0037187 0.0671062 -0.1462098 -0.0581214 -0.1977208 0.0326446 0.1034908 -0.0271940 -0.0489961 0.1304151 0.0206796 0.0198556 0.0672858 -0.0471463 0.0336875 -0.0155463 -0.0664515 -0.0653729 0.1364768 -0.0046508 -0.0588084 -0.0376798 0.0479516 0.0188768 0.1085924 0.0189258 0.0866221 -0.1935115 0.0820620 -0.1364449 0.0273280 0.0488579 0.0701412 -0.1376428 -0.0836042 -0.1547381 0.1336617 -0.0257822 -0.1674135 0.0726259 0.1061671 0.0476592 -0.0084425 0.1792183 0.0695666 0.0655266 0.0608936 -0.2551348 0.0789560 -0.0943664 0.0968545 -0.0081590 0.0837870 0.1424759 0.0484805 -0.0710932 -0.0056692 0.0448004 0.0175178 0.0490960 0.0002698 -0.0649668 -0.0701254 -0.0980613 -0.0083331 0.1006849 0.0728210 -0.0393629 -0.0179617 0.1968634 0.2057931 -0.0806169 -0.1839695 0.0817066 -0.0432106 -0.2292990 -0.0647440 0.0032758 -0.0751807 -0.0127345 0.1316739 -0.0553341 -0.0831868 0.0382506 0.1173345 0.0098137 0.1556293 -0.0121706 -0.0885694 -0.0754711 -0.1068469 -0.1751410 -0.0267624 0.0986374 0.0430342 -0.1642971 -0.0037991 -0.0750369 0.0147837 -0.0131134 -0.1235682 -0.1023395 0.0094606 -0.0133806 -0.0177988 -0.0323347 0.0288233 0.0414657 -0.0742048 0.1508886 0.0492157 -0.0068539 -0.1277756 -0.2397005 0.0430353 -0.2080297
PERSONe9 -0.0313997 0.0650181 -0.2612490 0.0749912 -0.0360038 0.0715683 -0.0291392 -0.1128734 0.0196492 -0.0126041 0.2356421 0.0724200 0.1719167 0.1960619 -0.0258357 0.0449862 -0.0770242 -0.1722126 0.0306631 -0.1404443 -0.1186026 -0.0494970 0.0757172 0.0346641 -0.0232121 0.1125741 -0.1922364 0.1206628 -0.0022621 -0.0234681 0.1131134 -0.0199067 0.1209366 0.1121098 0.0237618 -0.0360059 0.0761178 -0.0256057 0.0829665 0.0372333 -0.1298451 0.0135692 -0.0417935 -0.0224018 0.0107285 -0.0905442 -0.0384266 0.0151388 -0.0312556 0.0474849 0.0510743 -0.0472841 -0.0970947 0.0172545 -0.0511220 0.1455163 0.0423262 0.0788916 0.0083922 0.0310515 -0.0507560 0.0479822 0.0142907 -0.1429282 0.0869634 0.0003103 -0.0432188 -0.1405460 -0.1451671 0.0571387 0.0169797 0.0495035 0.1018565 0.0186913 -0.1722147 0.0086087 -0.0093232 0.0843801 -0.1896998 0.1106385 -0.0154948 0.0712591 0.0153768 -0.1636861 0.1132628 0.0638023 -0.2189171 -0.2063429 0.0140486 -0.0386539 -0.0175921 -0.0755698 0.1750781 0.0883364 0.1974634 -0.0568457 -0.1877534 -0.1268386 -0.0980535 -0.0341254 -0.0084966 0.0207035 -0.0890376 0.0728639 0.0506183 0.0392153 -0.0285211 0.0964314 0.0609998 0.1017004 -0.0383224 -0.0521270 -0.0482213 -0.0025446 0.0692594 -0.2221767 -0.0168186 0.1078912 -0.0054585 0.0893837 0.1393460 0.1631175 -0.2470698 -0.0574144 0.1459789 -0.0189729 0.1815764 -0.0361156 -0.0196682 -0.0076560 0.0535438 0.1809287 -0.2226692 0.1061292 0.0490041 0.0873802 0.0259201 0.0338280 -0.1037696 -0.1030058 0.0905506 0.0719421 -0.2397670 0.1384829 -0.1677535 0.0673390 -0.0010434 -0.0064800 -0.0889533 0.0737022 0.0291603 0.1035505 0.1180528 0.0273493 0.0391555 -0.1338648 -0.0707279 0.1891818 0.1121935 -0.0602526 0.2156167 -0.0878627 -0.1081958 -0.1761603 -0.0873886 -0.0049222 0.1287481 0.0093719 0.1372853 0.2675882 0.0492997 0.0954625 -0.0765029 -0.0602661 0.0736323 -0.1186087 0.0971598 -0.0392699 0.0469345 -0.0093157 -0.0537641 -0.0238227 -0.1216459 -0.0272822 0.0012911 0.0623971 0.0282148 -0.0213826 0.1514837 0.0232900 -0.0217015 0.0289953 -0.0460261 -0.0707142 -0.0085447 0.0298431 0.0132938 0.2289051 -0.0662268 -0.0485323 0.0237607 0.1394081 -0.1073928 -0.1183800 0.1443763 0.0652624 -0.1058733 0.1931353 0.1982858 -0.0026820 0.0587380 0.1562851 0.0113076 0.2184907 0.1406181 -0.0231999 -0.0549166 -0.0541437 -0.0033913 -0.0835577 0.0432823 0.0949935 -0.1677316 -0.1263571 -0.1635789 -0.1619000 -0.0676231 -0.0712546 -0.0225742 -0.0341675 -0.1636869 -0.0265477 0.0759990 -0.1572741 -0.0368327 -0.0415155 0.0716414 0.1215088 -0.0096860 0.0195530 -0.0471007 -0.0207522 0.0796871 -0.0803383 -0.1056037 -0.1274823 0.0338713 -0.0996418 0.1442103 -0.0492401 -0.1518308 0.0423810 -0.1228601 -0.1684138 -0.0003050 0.0368996 -0.0718058 0.1032013 -0.0972304 0.1475492 0.0761245 0.0961755 0.0788560 0.0044508 -0.0370510 -0.0898757 0.0546403 0.1191278 -0.1570270 -0.1032989 -0.0437510 -0.0434108 -0.0117808 0.0138039 0.0889108 -0.0283681 -0.0035592 -0.0769260 -0.0946845 -0.0720538 0.0385577 0.0221387 0.0590829 0.2477663 0.0391701 0.0576741 0.0252477 0.0475434 0.1424973 0.1238189 0.0150350 -0.1131313 -0.1677812 0.1101450 -0.0091456 -0.0578879 -0.1475947 0.0354059 0.0939344 -0.1399897
PERSONe10 0.1216968 0.0256191 0.0981499 0.0550672 -0.0295373 0.0628137 0.0967513 -0.1605799 0.1101612 -0.0603520 -0.1333247 -0.1780666 0.0719990 0.0802121 -0.0715042 -0.2049338 -0.0665348 -0.0482414 0.1024692 -0.1543113 0.0137941 -0.0401159 0.0138466 0.0795737 0.0565105 0.0459954 0.0051517 -0.0086368 -0.0884016 -0.1140454 -0.0894179 0.0604494 -0.0605408 -0.0035123 -0.0640075 -0.0402323 0.0266526 0.1018567 -0.0496203 -0.0002416 0.0685864 0.0948986 0.0945195 -0.0260653 -0.0195962 -0.0148372 -0.0203971 0.0340805 0.0333196 -0.0150179 0.0085808 -0.0116939 0.0447437 -0.0697572 -0.0600304 0.0682434 -0.0650728 0.0025166 -0.1814946 0.1358955 0.0070855 -0.0329778 -0.0046061 -0.0049125 -0.0129279 -0.1483443 -0.0442619 -0.1277421 -0.0086008 0.0007401 -0.0609521 -0.1601295 -0.0145471 -0.0101081 0.1026155 -0.0430593 0.0540850 -0.0507902 -0.1616879 0.0406022 -0.0142452 -0.0172834 -0.2560363 -0.1902170 0.1020566 -0.0165016 -0.1408017 -0.0400379 0.1903516 -0.1508733 -0.0100524 0.0084290 -0.0017574 0.0682380 0.0103237 0.1155790 0.0969792 0.0869355 -0.0783161 0.1256238 0.0646721 -0.0118184 -0.0402093 0.0033173 0.0059469 0.0875805 0.1663860 0.0349456 0.0095071 0.0721605 -0.0406170 -0.0189031 0.1494373 -0.1082128 -0.0173455 0.1701970 0.0890224 -0.0855341 0.1712361 0.1815908 -0.0588361 0.0218599 0.1682516 0.0189745 0.0127777 0.1770032 0.1597853 0.0570235 -0.0088298 0.0428783 -0.1181392 0.1261895 0.0291409 -0.0275422 -0.0350358 0.0937030 0.1340547 0.0788350 0.1908046 -0.1054649 -0.0101639 0.1293592 -0.0165803 -0.0301019 0.1286502 -0.0304358 -0.0680997 -0.0386898 0.0660929 0.1493659 0.0173315 0.0404885 0.0573663 -0.1561213 0.0679447 0.1116034 -0.0177837 0.1759203 0.0207667 -0.0057987 -0.0087775 0.0126827 -0.1219637 0.1495910 -0.0586640 0.0427469 0.0044850 -0.3673796 0.1070630 -0.1032766 -0.0747259 -0.1345485 0.0165751 0.0057818 0.0992067 -0.1164948 0.0921819 -0.0786230 -0.0804921 -0.0071006 -0.0166974 -0.1065946 -0.2653144 -0.1066543 0.0058324 0.0625823 -0.0627761 0.1037905 0.0286113 -0.1084150 -0.0881141 0.0797438 0.0861585 0.0096767 0.0573901 -0.0098602 0.0990092 0.2608843 -0.0065675 -0.0445250 -0.0860829 -0.1068480 0.1519093 0.1201667 0.0805559 0.0060763 0.1388717 -0.0338028 -0.1220154 0.0552107 0.0375349 0.0576564 0.0280773 -0.1694524 0.0135406 -0.0213305 -0.0551928 -0.0166452 0.0963333 -0.0026477 0.1304090 -0.0266509 0.3747296 0.1023379 -0.0173309 0.0394491 0.0881556 -0.0175193 -0.0146681 -0.1096789 0.1858562 0.0915133 0.1145669 -0.0552940 0.1431224 0.1048189 -0.1103800 0.2189191 -0.0561062 -0.0326680 -0.0309434 0.0557508 -0.1349487 0.0726638 -0.0348900 0.0794361 0.0749864 0.0675530 -0.0106864 -0.0508119 -0.0379447 -0.1571104 0.0990607 0.0202476 0.0579708 -0.1301499 0.1361401 0.0346265 -0.0905528 -0.0377571 -0.1456174 -0.0529704 -0.0043461 -0.0867620 -0.0548575 0.0643808 -0.0601292 -0.0824505 -0.0826094 -0.0383605 -0.2131209 -0.0834035 -0.0505356 -0.0030600 -0.0971185 -0.0118751 0.0738813 0.0257891 -0.0013805 -0.0786381 0.0692719 0.1448965 -0.0705342 0.0330031 -0.1036023 -0.0616896 -0.1369150 -0.0254471 -0.1375277 0.1482025 -0.0503005 0.0941828 -0.0655034 -0.0743962 -0.1887108 0.0776466 0.0355760 0.0400363 0.0301262 0.1168124
PERSONe11 -0.0408581 -0.1027402 -0.1894456 -0.0362719 0.0735481 -0.0186956 0.0106347 0.0093837 -0.0302624 -0.0306737 0.1338542 -0.1171812 0.0436295 0.0240035 0.0349866 0.1173607 0.1543908 -0.0604052 0.0136653 0.0486270 -0.1951846 -0.0000733 -0.0230367 0.0107083 0.0560541 -0.0515234 0.1148291 -0.0225985 -0.0267555 -0.0021617 -0.0570361 -0.2856020 0.0223611 -0.0108792 0.1136204 0.0019890 -0.0400997 -0.0999304 -0.1357128 0.1673067 0.0892337 0.0177604 0.0712280 0.1602196 0.0203400 0.1032725 0.1320668 -0.0463302 0.0096250 0.1477426 0.0662512 -0.1676460 -0.2194484 0.0922826 0.1293641 0.0215411 0.1189413 -0.1110824 -0.0779166 0.1180928 -0.0729282 -0.0060691 0.0333861 -0.0306486 -0.0331199 -0.1091679 -0.0566981 -0.0476969 -0.0129069 0.0880140 -0.1455759 -0.1168826 -0.0690872 0.0790170 0.0112169 0.0522433 -0.0717142 0.1264562 -0.0470923 0.0511940 -0.0880583 0.0560075 -0.0248881 -0.0048140 0.0784241 0.2238704 0.1591787 -0.0307580 0.0116192 0.0384582 -0.0758517 -0.1702668 0.0118015 -0.1095520 -0.0311302 -0.0736342 -0.1872911 -0.0405549 -0.0766871 -0.0015517 -0.0824518 -0.0823894 0.0993841 0.1498438 0.0239160 0.1734275 0.0945302 0.0209668 -0.0597722 0.0481278 -0.1075989 0.0117564 -0.1710610 -0.0364219 -0.1039474 -0.0251888 -0.0944024 -0.0768755 0.0405125 -0.1018415 0.1239056 -0.1745305 0.1377293 -0.0050880 0.1650157 -0.0880082 0.0450194 -0.1292253 -0.0335634 -0.0403544 0.0452063 0.1951016 0.0365399 -0.0635516 0.0783614 0.0925769 0.1534938 -0.1104027 0.0347531 0.0359735 -0.0282265 -0.0225300 0.0349188 -0.0701008 0.1437693 -0.0201047 0.2189504 0.2962850 0.0758333 -0.0138485 -0.0741171 -0.0674538 0.1430898 0.1134216 -0.0198810 -0.1667432 0.0976774 0.2273800 0.1037730 0.0685278 0.0561539 -0.0446743 -0.0176668 -0.1207859 0.0846231 -0.0573338 -0.0297475 -0.0610020 -0.1407541 0.0867098 0.1761423 0.1125784 -0.0368471 0.3349107 -0.0018517 -0.1540811 -0.0549654 0.0550539 -0.0017516 0.0359992 0.0420997 -0.1703701 -0.0043411 0.0450111 0.1121594 0.0404862 -0.0086867 -0.1261791 -0.0369633 -0.0802541 -0.0030276 0.0261404 -0.0636706 0.0199616 -0.0711251 -0.1171213 0.0789201 0.1074046 -0.0158727 0.0162454 -0.0638149 -0.1263316 0.0303345 -0.0257018 0.0095936 0.1159257 -0.1246081 -0.1226639 0.0565562 -0.0807292 0.0081974 -0.0533808 0.0770611 0.1539025 0.0501107 -0.0437224 0.0908795 0.0079336 -0.1401428 0.1712887 -0.0508164 -0.0091504 0.0617320 0.0642521 0.0279218 -0.0068506 -0.1241962 0.0321258 0.0163217 -0.0187142 -0.1822871 -0.1716382 0.0615425 -0.1631886 0.0439098 0.1819341 0.0728734 -0.1177129 -0.0165018 -0.1148808 0.0611913 0.0687053 -0.0232204 -0.1224284 -0.1699965 -0.0693629 0.1549912 -0.1074144 -0.0068605 0.1986941 -0.0605545 0.0067436 -0.1599381 0.1211587 0.0722654 -0.1399064 0.0525912 -0.0298474 0.1182300 0.1036224 0.0453084 -0.0222190 0.0047536 0.0157260 0.0006005 0.1579484 -0.0347064 -0.1156055 0.0734237 -0.1791313 0.2729213 0.2056255 0.0542882 -0.0722332 0.0780347 0.0186932 -0.0998300 0.0174079 0.1333859 0.1196788 0.0518156 -0.0915231 -0.0053421 -0.0095332 0.0641604 0.0343964 -0.1985262 -0.2996444 0.0842506 0.0669858 0.0566296 0.0560339 0.0003000 -0.0611861 0.1694059 -0.0038074 -0.0343130 -0.0663480 0.2299013 0.1152205
PERSONe12 0.0957214 0.0500815 -0.0248448 -0.0568040 -0.0126846 -0.0149118 -0.0378184 0.0308160 -0.0872713 -0.0286265 0.1699738 -0.0231444 0.0157051 0.0788836 0.1147819 0.2233030 0.0023229 0.0994028 -0.0898268 0.0170518 -0.0789415 -0.0782147 0.0232103 -0.0924169 -0.0447866 0.0887990 -0.0574358 0.0650135 -0.0509400 -0.0248942 -0.0200729 -0.2749442 -0.0133019 0.0265280 -0.0346882 0.0155838 0.1693444 -0.0727386 -0.0291350 -0.1765838 -0.0947586 -0.0907079 -0.1219976 0.0227277 0.0461918 0.0933495 -0.0985918 -0.1600433 -0.1341533 -0.1792961 0.0193233 0.0219685 -0.1333238 0.0890658 -0.0889810 -0.0262611 -0.0091629 -0.2215821 0.0857222 -0.0376146 0.0627142 -0.0925322 -0.0315034 0.1240873 -0.0021110 0.0403042 -0.0650396 -0.0707367 -0.0270669 0.0374031 -0.1150045 -0.0358945 0.0635255 -0.0286841 -0.1295328 -0.0549487 -0.0001305 -0.0834239 0.1554199 0.1001226 0.0166338 -0.1125469 0.0212962 -0.1201655 0.0047000 -0.0469703 -0.0538176 -0.0090426 0.0646818 0.1747737 0.0977889 -0.1510678 -0.0598012 -0.0402867 -0.0781827 -0.2183471 -0.1499389 -0.0856688 -0.0793934 0.0720317 0.0727169 -0.0721489 -0.0302381 0.1710009 0.0253598 0.2261419 -0.0670219 -0.1752806 -0.0683316 -0.1623771 0.0355109 0.0434406 0.0103455 0.0572485 -0.2428912 0.1503067 0.1015591 -0.0324440 0.1234310 0.0051288 -0.1323838 0.1236396 0.0533111 0.0211835 -0.0587141 0.0363569 0.0948453 -0.1357426 -0.1328867 -0.0194877 -0.1883357 -0.0619033 0.0825359 0.1539121 -0.1490233 0.0816140 0.1902407 -0.1528265 0.0364982 0.0848390 -0.0246232 0.1215283 -0.0263704 0.0388316 -0.2201077 0.0752136 0.1199166 -0.0125821 0.1694217 0.1426960 -0.0321095 -0.0702748 -0.1178640 0.0256179 0.1823986 0.0064596 -0.0421313 0.0490920 0.0087571 0.1217673 0.0336505 -0.0143517 0.1398740 -0.2842291 -0.0024076 0.0666298 0.1210688 0.1249040 0.0694678 -0.0648296 -0.0980134 0.0503229 0.2008611 0.0082590 -0.0877345 0.0643978 -0.0272446 0.1916218 0.0529093 -0.0170283 -0.0073963 -0.1184970 -0.0841884 -0.0621187 0.0741590 -0.0026159 0.0964558 0.0278610 -0.2113086 -0.1832644 -0.0403359 -0.0026252 0.1007685 0.1005336 -0.0583419 0.0585030 0.0276903 0.1349633 0.0250713 0.1554409 -0.1971300 0.0692528 0.1496507 -0.0182037 -0.0054976 -0.2244448 -0.0077341 0.1790495 -0.0501761 -0.0541566 0.0701943 -0.0308411 -0.1855701 0.0166758 -0.0484540 -0.0364311 0.2160089 0.1134224 0.0625164 0.0394360 0.0726189 -0.1188570 0.0662412 -0.0625398 0.0184763 -0.1126172 0.1084635 0.1238577 0.1605762 -0.1752079 0.0897030 0.2232316 0.0903871 -0.0086251 -0.0850927 0.1276070 0.0348671 0.0549714 -0.1248765 -0.1596268 0.0161280 0.1030479 0.0628766 0.1005709 -0.1992232 0.1294435 -0.0295909 0.0214001 -0.0861453 0.0174923 -0.0451609 -0.0355826 0.2384539 -0.0911490 0.0261991 0.0287561 -0.0383554 0.0299312 -0.1504782 0.0603910 -0.1668228 -0.0991905 0.0500324 -0.0314627 0.1095405 -0.0791461 0.0852446 -0.0023521 -0.1290248 0.0977396 0.0055185 0.0287310 0.0213849 0.1191826 -0.0077720 -0.0771017 -0.0554133 0.0737499 -0.0643860 0.0070048 -0.0511900 -0.0816141 0.0298433 0.0206405 0.0135767 -0.0261463 0.1609441 -0.1433549 0.0085181 -0.1141669 0.1158475 0.0985129 -0.1381168 -0.0440680 -0.0641378 -0.0604835 -0.0150746 0.1436999 -0.1169154 0.1541576
